P551	-0.581146	0.201482	0.323808	0.610199	-0.270850	-0.346903	0.807641	-0.209390	0.219071	0.004797	-0.358597	-0.628813	-0.362505	0.404109	0.550121	0.873282	-0.296335	0.518343	-0.182442	-0.077896	0.247612	0.444826	1.094362	0.351517	-0.251874	-0.010404	0.122910	-1.095952	-0.599999	-0.143706	-0.614732	0.457320	-0.072326	-0.357141	0.383764	-0.346054	-0.658714	-0.092820	0.400681	0.298760	-0.292621	-0.789155	0.748304	-0.112968	-0.337888	-0.660629	-3.522776	0.394656	-0.231051	-0.796832	-0.152155	-0.164515	0.407763	0.155514	0.346455	0.843767	-0.024514	-0.640349	1.374230	0.179552	-0.034695	0.601220	-0.687536	0.245502	-0.214260	0.807601	0.134112	-0.120869	-0.690355	0.342733	0.023111	0.531625	0.720867	0.244595	-0.123399	-0.284432	-0.135282	0.966492	-0.482621	-0.308516	0.124553	-0.198449	-0.015753	-0.495615	0.353077	0.034384	0.738154	-0.405461	-0.688219	0.152866	0.194957	0.042674	0.904263	0.098091	0.189402	0.221002	0.248355	0.169717	-0.146427	-0.169050
P115	-0.486293	0.384306	0.435495	0.479977	-0.166333	-0.335739	0.658251	0.026430	0.030391	-0.181650	-0.298450	-0.478958	-0.159410	0.285916	0.320366	0.723062	-0.487695	0.568133	-0.174649	0.059447	0.368153	0.403786	0.997487	0.145189	-0.391359	-0.018660	0.003496	-0.937787	-0.371567	0.005676	-0.637235	0.353078	0.160942	-0.305424	0.103611	-0.321723	-0.402409	-0.123930	0.416307	0.410307	0.017779	-0.681005	0.681592	0.046645	0.087570	-0.706104	-3.473848	0.568826	0.036038	-0.541104	0.082779	-0.315965	0.837353	0.068464	0.203520	0.685734	-0.136695	-0.277152	1.378199	0.192344	0.037447	0.586965	-0.717008	0.040792	0.013246	0.689229	0.067267	-0.164886	-0.612871	0.463209	0.144466	0.544555	0.583602	0.332646	-0.081797	-0.299738	-0.164199	0.921276	-0.304710	-0.222391	0.253067	-0.348429	-0.118446	-0.465666	0.432335	0.145433	0.622321	-0.336074	-0.350946	0.240146	0.256361	-0.079419	0.661021	0.073557	0.245452	0.302586	0.084555	0.127413	-0.270860	-0.428002
P1034	-0.591632	0.289007	0.430624	0.614219	-0.332142	-0.304876	0.912029	0.028775	0.067344	0.047438	-0.092137	-0.533066	-0.258018	0.512466	0.190058	0.764464	-0.370355	0.561228	-0.086522	-0.051148	0.364779	0.450831	1.030679	0.254885	-0.168361	0.095134	-0.204128	-1.079338	-0.638167	-0.046276	-0.516396	0.586825	0.286555	-0.180381	0.315916	-0.507450	-0.611695	-0.061977	0.521837	0.325504	-0.152438	-0.757378	0.764953	-0.222363	0.027609	-0.766022	-3.197610	0.431235	-0.006562	-0.740726	-0.142481	-0.195978	0.533786	0.256529	0.179181	0.761433	-0.006939	-0.673784	1.497005	0.011327	-0.047054	0.789254	-0.810898	0.058203	-0.040761	0.745847	0.237067	-0.117621	-0.615451	0.202041	0.237121	0.535131	0.735855	0.470997	-0.116611	-0.162625	-0.254296	0.955850	-0.394775	-0.068564	0.186962	-0.354023	-0.138091	-0.563234	0.494644	0.354463	0.711348	-0.080095	-0.698120	0.166597	0.338044	0.069528	0.735731	-0.084661	0.103767	0.437100	0.233764	0.074958	-0.340541	-0.295649
P6379	-0.531278	0.195217	0.443975	0.443986	-0.141455	-0.237747	0.629273	0.078562	-0.011999	-0.006106	-0.261708	-0.632175	-0.203275	0.403626	0.513174	0.605734	-0.338994	0.511668	-0.069155	0.031817	0.419720	0.143780	0.736923	0.089296	-0.231143	0.034107	-0.089427	-0.880517	-0.490059	-0.053552	-0.464656	0.436783	0.372917	-0.219538	0.432261	-0.246683	-0.470950	-0.264066	0.552888	0.106797	0.214044	-0.386664	0.621713	0.109952	0.005502	-0.565931	-3.120502	0.354635	0.139935	-0.733454	-0.071072	-0.490871	0.774145	0.066195	-0.080482	0.734839	0.144392	-0.457015	1.577365	0.076805	0.043844	0.482774	-0.633575	0.189061	-0.120347	0.895524	0.067611	0.009418	-0.498789	0.368394	0.333096	0.490869	0.688420	0.362284	-0.124904	-0.251336	-0.232505	1.076564	-0.185708	-0.165160	0.290988	-0.447268	-0.005730	-0.820804	0.377197	0.318247	0.691625	-0.308082	-0.379335	0.151846	0.351038	0.034336	0.614322	0.077718	0.155963	0.175680	0.027672	0.117362	-0.123967	-0.308490
P1885	-0.452534	0.411972	0.438396	0.439739	-0.049062	-0.383930	0.656479	-0.028872	0.036024	-0.199847	-0.389260	-0.472142	-0.178191	0.411325	0.332283	0.933814	-0.302249	0.517692	-0.137499	0.029860	0.331083	0.335867	0.943657	0.119838	-0.468174	-0.085235	0.042525	-0.959491	-0.438984	0.092311	-0.497969	0.370293	0.098126	-0.209497	0.032295	-0.277203	-0.378275	-0.300725	0.433588	0.433829	0.078669	-0.647308	0.618375	0.108294	0.011764	-0.617362	-3.457749	0.424099	-0.099722	-0.483047	0.030197	-0.295310	0.759742	-0.003243	0.165907	0.643674	-0.231133	-0.004726	1.274696	0.178929	0.003108	0.426672	-0.664300	0.089890	-0.079424	0.519092	-0.030755	-0.210912	-0.747672	0.479811	0.050049	0.445728	0.595619	0.198400	-0.045181	-0.346874	-0.217915	0.888044	-0.204126	-0.310434	0.408932	-0.338561	-0.073046	-0.501101	0.450978	0.081752	0.639571	-0.350545	-0.209741	0.361331	0.392590	-0.048564	0.679913	0.087631	0.205596	0.129905	0.137331	0.174493	-0.236621	-0.418022
P47	-0.676454	0.191606	0.317867	0.602250	-0.505682	-0.379399	0.893930	-0.229603	0.068412	0.187468	-0.107660	-0.578478	-0.378972	0.656524	0.403846	0.733642	-0.259722	0.630196	-0.016144	-0.122079	0.361421	0.386730	0.978958	0.173114	-0.050836	0.094606	-0.143068	-1.042521	-0.778104	-0.151241	-0.443239	0.948604	0.152332	-0.308548	0.450070	-0.374888	-0.643177	-0.030584	0.605170	0.018089	-0.100958	-0.572323	0.737367	-0.091365	-0.148860	-0.552683	-3.258459	0.269895	-0.106977	-0.843882	-0.267909	-0.194128	0.444182	0.266164	0.094365	0.903217	0.107185	-0.825195	1.512566	-0.074239	-0.189715	0.770419	-0.765114	0.202929	-0.142818	0.968449	0.208578	-0.041399	-0.438992	0.063656	0.348811	0.505414	0.621464	0.536912	-0.107412	-0.309182	-0.343782	1.024079	-0.604381	-0.209571	0.202568	-0.469302	-0.081211	-0.727872	0.444007	0.424153	0.867190	-0.318741	-0.925579	0.078790	0.350037	0.136338	0.787020	0.039715	-0.185175	0.213986	0.419874	-0.023052	-0.032347	-0.143422
P2922	-0.753803	0.165621	0.441442	0.602072	-0.187555	-0.243455	0.646473	0.017063	0.190366	0.022177	-0.170309	-0.518929	-0.251500	0.562905	0.441572	0.853532	-0.177444	0.564022	0.012183	-0.086933	0.308945	0.381300	0.870957	0.173533	-0.125271	0.179588	-0.015029	-0.930777	-0.629214	-0.038412	-0.495907	0.744379	0.042492	-0.091579	0.388674	-0.345604	-0.741895	-0.250868	0.480116	0.170350	0.059053	-0.617390	0.664509	-0.179124	0.060929	-0.701128	-3.492149	0.227315	-0.112765	-0.522356	-0.219573	-0.437007	0.604187	0.078092	0.077218	0.879829	0.006790	-0.534541	1.509012	0.123167	-0.014035	0.458153	-0.703318	0.182072	-0.198518	0.751504	0.196495	-0.083727	-0.517855	0.124038	0.300179	0.398808	0.480062	0.422515	-0.287892	-0.383088	-0.295541	1.104949	-0.659582	-0.056376	0.189551	-0.565542	-0.069370	-0.603022	0.378606	0.231433	0.649517	-0.249974	-0.688432	0.200818	0.320246	0.147665	0.652264	0.324849	0.053482	-0.031375	0.046804	0.116430	-0.114182	-0.132014
P2389	-0.455980	0.480652	0.466667	0.497852	-0.021926	-0.325286	0.611363	-0.003371	0.156983	-0.193357	-0.436502	-0.523984	-0.180951	0.389808	0.462810	0.850464	-0.322225	0.485668	-0.140306	-0.012471	0.345318	0.313431	0.820291	0.055645	-0.486720	0.041217	0.055249	-0.959380	-0.358901	0.043358	-0.515228	0.304910	0.246627	-0.165300	0.130063	-0.291878	-0.567049	-0.336309	0.409659	0.298563	0.195535	-0.593961	0.589126	0.148661	-0.118657	-0.598546	-3.508774	0.329424	0.039337	-0.460561	-0.014217	-0.463090	0.778618	-0.069043	0.113984	0.614090	0.021443	-0.190185	1.371894	0.158907	-0.030461	0.417403	-0.614134	0.189713	-0.044698	0.751684	0.039848	-0.107981	-0.572220	0.416472	0.132145	0.411943	0.549884	0.260093	-0.102073	-0.392854	-0.118124	1.037547	-0.285901	-0.226210	0.452592	-0.446419	-0.016635	-0.632648	0.317730	0.128443	0.553862	-0.315151	-0.205831	0.167240	0.330117	0.105045	0.533215	0.155297	0.338115	0.037954	0.025626	0.290301	-0.250409	-0.326842
P361	-0.713227	-0.158025	-0.118428	0.055059	-0.545957	0.118705	0.629586	-0.212377	0.093945	0.168810	-0.226531	-0.711076	-0.650113	0.663299	0.561168	0.236434	0.188270	0.905689	-0.147130	0.029698	0.215466	0.075465	0.614231	0.016399	0.237222	-0.213536	-0.058832	-0.711821	-0.505839	-0.426304	-0.401929	0.885957	0.002064	-0.174733	0.276351	-0.443313	-0.162812	-0.023678	0.490766	-0.140518	0.089984	-0.576009	0.486082	-0.088354	-0.762522	-0.163652	-4.756628	0.281825	-0.607453	-0.514785	-0.294621	-0.224249	0.287299	0.589319	0.071085	0.912635	-0.157906	-0.904812	1.460701	-0.354748	0.000132	0.664485	-0.282033	0.204892	-0.033969	1.140765	-0.037384	0.300929	-0.960343	0.346653	-0.151873	0.400903	0.227942	0.290857	-0.080480	-0.450292	-0.452367	1.212401	-0.712746	-0.231669	-0.003609	-0.148154	0.015925	-1.027439	0.058970	0.548183	0.645350	-0.372383	-1.032741	0.434210	0.328164	0.288273	0.466985	0.530653	0.187744	-0.169603	0.483177	0.359880	-0.041087	-0.002927
P1304	-0.367028	0.384593	0.507639	0.570325	0.077501	-0.373223	0.496302	0.009201	0.136433	-0.252058	-0.332943	-0.490945	-0.099445	0.438960	0.290829	0.889418	-0.344277	0.537616	-0.044660	0.119561	0.401632	0.425820	0.963967	0.059403	-0.610164	-0.020272	-0.006422	-1.089815	-0.490536	0.066724	-0.578339	0.357572	0.222787	-0.188390	0.086928	-0.369293	-0.496998	-0.199143	0.409181	0.406166	0.139697	-0.645196	0.577322	0.124564	0.083034	-0.652938	-3.398947	0.379897	-0.057675	-0.549036	0.016726	-0.325662	0.841337	0.012175	0.114345	0.565417	-0.153847	-0.098031	1.310111	0.196708	0.089118	0.466891	-0.713256	0.045750	-0.057167	0.543964	-0.011465	-0.166812	-0.673699	0.371108	0.171347	0.465829	0.555752	0.169620	-0.096528	-0.346677	-0.183995	0.898137	-0.129475	-0.296080	0.398324	-0.304890	-0.106760	-0.482312	0.546072	0.191757	0.542442	-0.315726	-0.169837	0.234196	0.352520	0.058080	0.593094	-0.027289	0.235261	0.054063	0.000174	0.170977	-0.326734	-0.378073
P27	-0.508274	0.397250	0.344203	0.523746	-0.199516	-0.243181	0.732448	0.020609	0.031210	-0.091279	-0.293163	-0.562128	-0.180665	0.381834	0.413943	0.750443	-0.434066	0.510862	-0.246671	-0.002792	0.309131	0.416571	0.912766	0.131353	-0.421055	0.036866	-0.021397	-0.996106	-0.557744	0.010790	-0.556658	0.362962	0.235063	-0.175312	0.194800	-0.324411	-0.504269	-0.260682	0.516395	0.323377	0.009648	-0.655060	0.719253	-0.011966	-0.010282	-0.796709	-3.354695	0.514944	0.056956	-0.677953	-0.026970	-0.505995	0.691946	0.125964	0.134043	0.828480	0.059295	-0.355621	1.428440	0.054022	-0.017017	0.602637	-0.665557	0.057509	-0.037033	0.825198	-0.025451	-0.110561	-0.581948	0.363116	0.138200	0.437951	0.671964	0.416694	-0.097788	-0.345573	-0.181715	0.996867	-0.316387	-0.267511	0.332665	-0.376576	-0.078016	-0.585903	0.430501	0.142270	0.717980	-0.302016	-0.430203	0.158179	0.359647	0.066732	0.667602	0.069290	0.241666	0.234348	0.139009	0.199089	-0.229901	-0.377092
P1327	-0.444009	0.441279	0.403940	0.435914	-0.168725	-0.458307	0.547792	-0.119095	0.047198	-0.125195	-0.410809	-0.538524	-0.224266	0.366570	0.449165	0.955590	-0.477570	0.568915	-0.201102	0.076324	0.306438	0.378063	1.001235	0.228590	-0.492283	-0.083129	0.114751	-1.029055	-0.488307	-0.056276	-0.588801	0.320366	-0.065386	-0.481352	-0.023278	-0.319830	-0.431732	-0.091257	0.349986	0.322373	-0.077137	-0.665481	0.530333	0.002183	-0.222728	-0.648948	-3.651846	0.285350	-0.084297	-0.637836	0.014840	-0.237593	0.631960	0.022824	0.057347	0.632842	-0.074616	-0.152461	1.276840	0.171955	-0.044511	0.568480	-0.621783	0.009362	-0.180966	0.674623	0.023395	-0.168462	-0.837059	0.437905	-0.019732	0.538491	0.687251	0.111954	-0.065275	-0.343884	-0.162166	0.816412	-0.245511	-0.368914	0.257788	-0.309734	-0.053618	-0.443917	0.335970	0.165843	0.721843	-0.550857	-0.255051	0.068341	0.481007	0.044492	0.907753	0.162359	0.242353	0.340137	0.131171	0.272474	-0.096459	-0.444168
P991	-0.548741	0.305922	0.412756	0.531819	-0.199550	-0.256728	0.665374	0.021325	0.125833	-0.172884	-0.258484	-0.557922	-0.253829	0.408868	0.382456	0.769652	-0.381376	0.511381	-0.201845	0.033036	0.445880	0.376431	0.950748	0.167350	-0.349554	0.040732	-0.012657	-0.995894	-0.464539	0.061871	-0.563236	0.333873	0.216639	-0.176872	0.228716	-0.305195	-0.505870	-0.273892	0.484097	0.295076	-0.065486	-0.704338	0.776385	0.038895	0.123197	-0.847138	-3.250489	0.373480	0.053273	-0.685265	0.002371	-0.383491	0.689379	0.121346	0.198670	0.814379	0.023746	-0.414354	1.341408	0.140492	-0.065816	0.624354	-0.718641	0.192483	-0.088246	0.827393	0.111099	-0.083636	-0.578250	0.351497	0.203825	0.516908	0.633524	0.438549	-0.038497	-0.279750	-0.181364	1.101856	-0.256102	-0.217307	0.389306	-0.441980	-0.111998	-0.524301	0.443418	0.199072	0.568304	-0.307456	-0.441560	0.185625	0.278848	0.041896	0.679807	0.109579	0.161154	0.184751	0.128697	0.065311	-0.249087	-0.304076
P1535	-0.604642	0.172423	0.446617	0.474552	-0.247938	-0.148337	0.729797	0.038117	0.115438	0.055716	-0.239746	-0.601565	-0.208422	0.434498	0.422803	0.783423	-0.293357	0.477150	-0.098531	-0.055363	0.373089	0.288966	0.824916	0.134420	-0.183613	0.133833	-0.137352	-0.976335	-0.520684	-0.018329	-0.510533	0.580340	0.275120	-0.201017	0.436020	-0.283691	-0.487034	-0.176863	0.527937	0.115071	0.127982	-0.567318	0.769468	-0.011059	0.004045	-0.650198	-3.109729	0.350531	0.123226	-0.738970	-0.151876	-0.359063	0.603846	0.105340	-0.004776	0.820236	0.212394	-0.629600	1.658689	0.047457	-0.069613	0.564088	-0.664155	0.173929	-0.180662	0.902971	-0.012838	-0.040673	-0.555651	0.131342	0.367927	0.477401	0.733454	0.418970	-0.084845	-0.320430	-0.322348	1.084971	-0.367224	-0.145273	0.275636	-0.461667	-0.002367	-0.747692	0.383305	0.253852	0.742351	-0.228974	-0.666120	0.115503	0.414955	0.172814	0.605253	0.113069	0.022979	0.230668	0.078644	0.042816	-0.095154	-0.255915
P400	-0.585054	0.334158	0.314053	0.603658	-0.292617	-0.274586	0.831330	-0.065224	0.139375	0.061402	-0.292525	-0.583865	-0.295357	0.447525	0.394154	0.741032	-0.406264	0.410375	-0.150749	0.003422	0.360315	0.395151	0.973986	0.242922	-0.242197	0.139593	-0.117472	-1.120076	-0.509469	-0.048177	-0.640326	0.535791	0.278514	-0.226398	0.467859	-0.241233	-0.496500	-0.170070	0.555822	0.215531	0.005578	-0.700257	0.750580	-0.074420	0.036118	-0.622522	-3.364496	0.383003	0.073001	-0.735065	-0.063280	-0.253103	0.657951	0.101447	0.098744	0.707338	0.139766	-0.671671	1.567560	0.083116	0.072830	0.697536	-0.689277	0.234706	-0.075805	0.877982	0.120825	-0.035923	-0.625527	0.293417	0.179747	0.526363	0.665067	0.373948	-0.099778	-0.316348	-0.254767	1.043561	-0.382913	-0.220990	0.220921	-0.452181	-0.036714	-0.630535	0.406086	0.229828	0.639348	-0.278913	-0.614213	0.201182	0.272010	0.035863	0.622951	0.168322	0.058061	0.307850	0.144446	0.182104	-0.197412	-0.320527
P286	-0.650766	0.277217	0.262835	0.490732	-0.339230	-0.130227	0.831534	-0.061317	-0.037541	0.125655	-0.169393	-0.562841	-0.241045	0.418282	0.400922	0.496275	-0.238086	0.639224	-0.176739	-0.142100	0.318416	0.366303	0.917849	0.182905	-0.074960	0.101544	-0.136447	-0.984809	-0.584416	-0.208280	-0.552078	0.708558	0.338236	-0.290011	0.402227	-0.240903	-0.465114	-0.159654	0.572499	-0.066533	-0.037374	-0.593299	0.665755	-0.014258	-0.144267	-0.612079	-3.242215	0.386682	0.063223	-0.768396	-0.193051	-0.300070	0.699381	0.235948	0.103157	0.895601	0.258834	-0.777780	1.551590	-0.133359	-0.052696	0.765939	-0.758631	0.107428	-0.186561	1.040321	0.230485	0.006388	-0.572369	0.174330	0.241059	0.481183	0.657124	0.553725	-0.077528	-0.414706	-0.150056	1.132607	-0.428914	-0.212966	0.216502	-0.411298	-0.052737	-0.774593	0.190059	0.326189	0.776676	-0.295058	-0.684572	0.130911	0.429129	0.033619	0.756226	0.182605	0.024045	0.220362	0.310994	0.018672	-0.138686	-0.286627
P5588	-0.663851	0.288268	0.258994	0.432333	-0.193046	-0.080638	0.903784	0.045977	0.087945	0.162051	-0.052819	-0.722519	-0.376912	0.535790	0.376267	0.658078	-0.349707	0.585873	-0.164734	0.139391	0.349122	0.081929	0.918461	0.127612	-0.249825	0.022156	-0.053718	-0.787207	-0.525738	-0.154109	-0.568955	0.698047	0.412584	-0.347028	0.271614	-0.322361	-0.393583	-0.349000	0.754904	0.054691	0.028894	-0.415139	0.767698	0.057230	0.143818	-0.396558	-3.436258	0.451364	-0.047432	-0.664769	-0.151811	-0.392852	0.651545	0.360770	-0.049816	0.929516	0.175524	-0.725639	1.622775	-0.089567	-0.090815	0.531491	-0.525810	0.317947	-0.052951	1.225433	0.128973	0.103866	-0.555973	0.170187	0.352778	0.471305	0.667476	0.568676	-0.123671	-0.312343	-0.227368	0.962048	-0.373753	-0.191713	0.234712	-0.452693	-0.134735	-0.876297	0.348022	0.401124	0.682279	-0.268270	-0.801939	0.182078	0.533182	0.087948	0.742823	0.089503	-0.010191	0.204149	0.238394	0.174868	-0.156389	-0.152201
P3716	-0.422254	0.403140	0.396530	0.485987	-0.091647	-0.343425	0.601786	-0.025571	0.079182	-0.249054	-0.280886	-0.495686	-0.163132	0.342437	0.349129	0.788397	-0.449869	0.538868	-0.167239	0.087583	0.380695	0.383116	0.887433	0.130621	-0.451990	-0.091566	0.009004	-0.955558	-0.378473	0.101071	-0.503658	0.325856	0.237685	-0.200392	0.062094	-0.331874	-0.419560	-0.226329	0.490474	0.363773	0.100024	-0.679801	0.589604	0.044839	0.076448	-0.653729	-3.296305	0.371208	0.065412	-0.625763	0.071904	-0.355888	0.724667	0.059515	0.105855	0.654844	-0.108714	-0.120838	1.337899	0.086075	0.059647	0.466027	-0.631116	0.063510	0.005718	0.642211	0.008929	-0.128748	-0.682475	0.433816	0.081304	0.457577	0.617123	0.283355	-0.109436	-0.310523	-0.102709	0.933288	-0.150111	-0.321204	0.411271	-0.315378	-0.068873	-0.530930	0.449226	0.150899	0.626678	-0.324371	-0.210367	0.283946	0.392143	0.066886	0.691056	0.058044	0.207085	0.150816	0.095212	0.172029	-0.276584	-0.466531
P4913	-0.674582	0.372291	0.187373	0.373092	-0.393764	-0.138793	1.134718	-0.251636	-0.022364	0.242919	-0.396906	-0.661295	-0.480503	0.553144	0.604044	0.770067	-0.195392	0.592919	0.072997	-0.030974	0.347157	0.100766	0.911855	0.167578	-0.094415	-0.003927	-0.006519	-0.858989	-0.614774	-0.219499	-0.587523	0.785258	0.167336	-0.302215	0.475868	-0.298420	-0.379786	-0.197033	0.729368	-0.061919	0.144986	-0.459179	0.747325	-0.101494	-0.271376	-0.269883	-3.897498	0.226737	-0.100530	-0.858617	-0.275556	-0.373862	0.453624	0.227020	-0.056585	0.956927	0.159989	-0.823210	1.797368	-0.012433	-0.095347	0.668023	-0.534360	0.202773	-0.097338	1.079148	0.035704	0.149214	-0.761094	0.111563	0.032533	0.571073	0.809753	0.385498	-0.063598	-0.290488	-0.491396	1.318636	-0.511741	-0.312230	0.028699	-0.442304	-0.016718	-1.061049	0.279717	0.452053	0.968883	-0.524686	-0.878206	0.023185	0.348648	0.125702	0.794613	0.237782	0.083429	0.195329	0.343332	0.302295	0.092814	-0.189686
P279	-0.914198	-0.043737	-0.211221	0.286018	-0.548728	0.160526	0.672406	-0.039559	0.122841	0.055673	-0.246783	-0.515678	-0.345269	0.739458	0.707683	0.228642	0.056446	0.993767	-0.032778	-0.098445	-0.027356	-0.065974	0.545669	-0.220054	0.120549	-0.160552	-0.128179	-0.431899	-0.446190	-0.067267	-0.716941	1.003145	-0.104447	-0.320422	0.050027	-0.416202	-0.265804	-0.046061	0.703871	-0.141598	0.197294	-0.420519	0.602740	0.274410	-0.661638	-0.151278	-4.745733	0.431593	-0.676493	-0.167037	-0.127814	-0.276716	0.333430	0.395355	-0.038196	1.056161	-0.126400	-0.549991	1.487377	-0.115122	0.139926	0.467975	-0.163086	0.018425	-0.215948	0.871610	0.095625	0.279008	-0.727111	0.613924	0.122919	0.481348	0.178321	0.499473	-0.060525	-0.408251	-0.545608	1.068438	-0.949820	-0.010278	0.074563	-0.133124	0.304496	-1.026837	0.193747	0.258492	0.463853	-0.302141	-0.624863	0.533193	0.289119	0.157337	0.631932	0.523657	0.090449	-0.043311	0.370090	0.050860	0.127402	-0.179219
P1365	-0.563541	0.140015	0.394682	0.473772	-0.276004	-0.007865	0.949576	-0.062395	-0.187457	0.331594	-0.068877	-0.597157	-0.361259	0.375984	0.211706	0.545881	-0.152780	0.557534	-0.332860	0.053985	0.369169	0.070948	0.759113	0.211737	-0.076561	0.157944	-0.198146	-1.167419	-0.669707	-0.086637	-0.354183	0.839225	0.438895	-0.401980	0.468474	-0.175120	-0.182610	-0.245522	0.793275	-0.203488	-0.005666	-0.407227	0.687448	-0.009638	-0.317220	-0.449677	-3.367909	0.238913	-0.122729	-1.030160	-0.217521	-0.252970	0.387708	0.393702	0.064740	0.775737	0.205877	-0.903619	1.710148	-0.161063	-0.089407	0.682326	-0.654348	0.201084	-0.205139	1.210200	0.187194	-0.099668	-0.582234	0.011407	0.355104	0.588945	0.691377	0.333910	0.036512	-0.354022	-0.345859	1.192265	-0.312407	-0.212086	0.257453	-0.247827	-0.124301	-1.008554	0.094971	0.365672	0.813222	-0.315744	-0.874026	0.180806	0.474014	0.226196	0.764788	0.161024	-0.299643	0.306251	0.375257	0.181056	0.026409	-0.295154
P185	-0.520391	0.341080	0.371607	0.589014	-0.193001	-0.309579	0.630317	-0.031830	0.106036	-0.059598	-0.271240	-0.591835	-0.099960	0.511553	0.537097	0.740816	-0.427330	0.444145	-0.186001	-0.038300	0.463314	0.369063	0.872117	0.097186	-0.329832	-0.009853	-0.100946	-1.122636	-0.403634	-0.006639	-0.512130	0.427558	0.122718	-0.345734	0.135640	-0.377159	-0.392501	-0.095347	0.556552	0.292476	-0.042689	-0.680636	0.619823	0.063068	-0.150158	-0.740102	-3.328270	0.315757	0.068696	-0.798107	-0.121226	-0.301662	0.760904	0.032110	0.067520	0.721802	0.113845	-0.349019	1.411231	0.082449	-0.055099	0.697052	-0.698814	0.103435	-0.155459	0.763132	-0.118271	-0.172532	-0.730293	0.284782	0.106624	0.506481	0.604237	0.289467	-0.047997	-0.351277	-0.101886	0.966680	-0.243201	-0.241187	0.228636	-0.170433	0.029259	-0.574488	0.322327	0.116040	0.623664	-0.386683	-0.305060	0.066664	0.276857	0.085463	0.734970	0.157469	0.195249	0.392322	0.121580	0.174661	-0.160120	-0.457360
P200	-0.459824	0.178138	0.317456	0.501400	-0.488293	-0.376728	0.938136	-0.390667	0.058759	0.268555	-0.063412	-0.638871	-0.332140	0.571368	0.319607	0.574996	-0.435139	0.618109	-0.184096	-0.119828	0.193841	0.405490	0.766508	0.213893	-0.087778	0.061793	-0.140125	-1.314096	-0.819526	-0.176304	-0.610827	0.872898	0.204419	-0.287091	0.538157	-0.220730	-0.616479	-0.039675	0.597660	-0.128776	-0.345550	-0.732572	0.794123	-0.234227	-0.242335	-0.380266	-3.288646	0.295697	-0.182659	-0.888097	-0.381129	-0.186705	0.349741	0.355440	0.048128	0.757877	0.284856	-0.875724	1.541377	0.044782	-0.211426	0.833935	-0.820140	0.259748	-0.229358	0.981725	0.188030	0.065080	-0.500454	0.032533	0.416761	0.449496	0.687811	0.287729	-0.117418	-0.216376	-0.300264	0.968277	-0.642094	-0.195966	0.019506	-0.253740	0.089298	-0.711557	0.234727	0.547228	0.828614	-0.238286	-0.920540	0.137798	0.376427	0.034136	0.844627	-0.008785	-0.186541	0.276784	0.581336	0.043077	0.069471	-0.259473
P10624	-0.457601	0.423081	0.406479	0.363301	0.001587	-0.377520	0.536443	0.129361	-0.102186	-0.193579	-0.345138	-0.523922	-0.203451	0.381892	0.371930	0.765295	-0.435082	0.496465	-0.235793	0.054785	0.424513	0.316083	0.799409	0.110144	-0.634430	-0.100178	0.129364	-0.889739	-0.276907	0.018832	-0.521214	0.263615	0.276843	-0.102017	0.124405	-0.194479	-0.424571	-0.252729	0.450322	0.227255	0.182759	-0.515179	0.548748	0.092060	0.100733	-0.752852	-3.272877	0.469614	0.217353	-0.495859	0.010351	-0.444562	0.916603	0.057552	0.085036	0.697633	-0.088503	-0.142297	1.337400	0.188357	-0.030833	0.428534	-0.595888	0.071789	-0.116945	0.709117	-0.060206	-0.116091	-0.540904	0.309556	0.082751	0.458754	0.565845	0.183893	-0.101594	-0.390498	-0.157516	0.850164	-0.204606	-0.208464	0.437861	-0.455616	0.033981	-0.682844	0.400126	0.193934	0.503644	-0.297570	-0.197315	0.170700	0.373936	0.049539	0.467911	0.215714	0.245600	0.108798	-0.008202	0.224039	-0.191959	-0.464309
P138	-0.594380	0.398146	0.099907	0.424443	-0.424622	-0.144890	0.807822	-0.001260	-0.003204	0.078030	-0.150401	-0.659556	-0.439063	0.586890	0.593629	0.511749	-0.146143	0.584558	0.145777	-0.112279	0.323581	0.209402	0.655702	0.144111	-0.056655	0.106154	-0.033777	-1.123764	-0.752052	-0.286585	-0.590704	0.941334	0.167066	-0.307526	0.443158	-0.107360	-0.369976	-0.323750	0.659117	-0.090402	0.078183	-0.534160	0.781616	-0.114623	-0.224058	-0.484618	-3.682363	0.156251	-0.312990	-0.776484	-0.253604	-0.577996	0.672301	0.329506	-0.028229	0.921196	0.182207	-0.744519	1.728061	0.107796	-0.111347	0.694892	-0.623990	0.199055	-0.037731	1.237906	-0.012540	0.157734	-0.502834	0.094359	0.231222	0.262792	0.685484	0.455190	-0.070254	-0.321434	-0.440707	1.118426	-0.557808	-0.397058	0.226072	-0.221688	-0.103976	-0.977045	0.330090	0.565712	0.465994	-0.479182	-0.818496	0.339853	0.370621	0.053245	0.650953	0.394116	-0.112378	0.077655	0.352516	0.165623	0.043641	-0.121655
P1142	-0.441294	0.284493	0.414631	0.494785	-0.291265	-0.208264	0.735419	0.004890	0.077874	-0.019797	-0.140154	-0.577444	-0.272870	0.391717	0.466329	0.698363	-0.421388	0.575465	-0.201660	-0.013053	0.400225	0.385286	1.020521	0.132131	-0.265286	0.100406	-0.042559	-1.009128	-0.524254	-0.034625	-0.536993	0.476108	0.327080	-0.172592	0.277535	-0.308688	-0.489409	-0.237506	0.525659	0.165683	-0.012375	-0.639241	0.666796	-0.012793	0.053181	-0.638913	-3.183242	0.354050	0.006095	-0.675267	-0.097977	-0.398381	0.683409	0.096957	0.067159	0.856296	0.157179	-0.568906	1.369452	-0.009108	0.022088	0.565978	-0.712274	0.168049	-0.022565	0.934455	0.073942	-0.065028	-0.594649	0.314849	0.330370	0.491887	0.609165	0.513651	-0.070800	-0.353686	-0.173517	1.074059	-0.364514	-0.219084	0.261462	-0.422731	-0.084949	-0.571082	0.333772	0.201785	0.756945	-0.143101	-0.505707	0.233578	0.411023	-0.048101	0.670635	0.087657	0.206797	0.174048	0.115825	0.070775	-0.205461	-0.339289
P108	-0.460656	0.369024	0.437632	0.471431	-0.203724	-0.217334	0.518847	0.101942	0.108579	-0.206382	-0.397739	-0.588099	-0.199093	0.465758	0.420538	0.829326	-0.517496	0.413169	-0.239319	0.059084	0.389591	0.309725	0.771558	0.092287	-0.497354	0.050362	-0.004691	-0.902310	-0.356231	0.066622	-0.534568	0.238527	0.072059	-0.242234	0.136577	-0.225596	-0.448851	-0.153830	0.484670	0.250821	0.133949	-0.636649	0.622997	0.004806	0.001633	-0.698940	-3.326010	0.261678	0.041967	-0.550274	0.040824	-0.381701	0.741793	-0.026853	0.049591	0.794655	0.044173	-0.111974	1.356463	0.145562	-0.041234	0.519416	-0.570362	0.149891	-0.148270	0.750531	-0.105369	-0.148113	-0.562149	0.459324	0.016696	0.376430	0.758674	0.270928	-0.030275	-0.344499	-0.197185	0.870552	-0.284205	-0.289281	0.400167	-0.513422	0.080751	-0.543127	0.233023	0.092294	0.636442	-0.383561	-0.290029	0.169956	0.362818	0.114793	0.675146	0.305276	0.125468	0.258413	0.085318	0.192193	-0.085659	-0.278485
P4379	-0.458113	0.376955	0.483454	0.445619	-0.091348	-0.387203	0.487694	0.069605	0.059988	-0.246668	-0.294108	-0.490902	-0.103296	0.367612	0.225508	0.690487	-0.315976	0.526481	-0.186667	-0.003875	0.337399	0.283319	0.806403	0.116103	-0.413589	0.039049	0.083592	-0.872433	-0.314884	0.132099	-0.507088	0.265439	0.359157	-0.209108	0.058954	-0.321967	-0.364620	-0.160438	0.440073	0.341426	0.224505	-0.551035	0.588608	0.151114	-0.018589	-0.694049	-3.259393	0.429770	0.027878	-0.482116	-0.042858	-0.345433	0.780610	0.038254	0.148721	0.620176	-0.085785	-0.132848	1.383526	0.109642	0.005998	0.486393	-0.562083	0.099447	-0.079216	0.645403	-0.000349	-0.163535	-0.660188	0.409499	0.182351	0.457119	0.423164	0.250453	-0.087747	-0.360973	-0.076989	0.871970	-0.133033	-0.199643	0.333961	-0.383173	-0.048462	-0.483860	0.292582	0.189650	0.586929	-0.206035	-0.266891	0.265532	0.295352	0.011848	0.630593	0.104354	0.201500	0.149494	0.037817	0.196486	-0.240681	-0.342031
P103	-0.484571	0.382851	0.380443	0.368153	-0.109651	-0.397958	0.684167	-0.062828	0.156147	-0.161387	-0.369238	-0.610411	-0.141753	0.292556	0.362053	0.808643	-0.411205	0.464261	-0.318606	0.153366	0.363811	0.417485	0.939114	0.203819	-0.394225	-0.089231	0.050303	-0.941369	-0.362387	0.017365	-0.568302	0.270257	0.193348	-0.290144	0.046858	-0.327227	-0.426310	-0.184260	0.432269	0.239442	-0.002800	-0.682221	0.573791	0.081303	-0.023203	-0.558746	-3.269126	0.443550	0.019826	-0.621402	0.019421	-0.445261	0.676648	-0.013978	0.044572	0.563025	-0.044634	-0.241953	1.342570	0.256693	-0.070652	0.513362	-0.713622	0.054244	-0.115529	0.677525	-0.079611	-0.122159	-0.606156	0.339469	0.021116	0.444718	0.718364	0.248444	-0.064750	-0.314622	-0.151020	0.842676	-0.139633	-0.358234	0.284321	-0.321080	-0.024919	-0.522845	0.372408	0.101561	0.712100	-0.383601	-0.186686	0.184688	0.470538	0.083110	0.687607	0.099227	0.177387	0.227436	0.186030	0.289902	-0.234429	-0.443608
P189	-0.548347	0.320012	0.417937	0.547059	-0.045361	-0.296434	0.598566	0.049179	0.093631	-0.213776	-0.328689	-0.541336	-0.185460	0.437670	0.344993	0.847730	-0.371472	0.463132	-0.128264	0.112821	0.420130	0.326166	0.766426	0.138864	-0.461005	0.009040	-0.091167	-0.868378	-0.478301	0.151895	-0.557281	0.325179	0.196014	-0.267472	0.149632	-0.303771	-0.421557	-0.212204	0.487096	0.375051	0.150019	-0.493569	0.666864	0.065797	0.036688	-0.680008	-3.316243	0.410690	0.089615	-0.648849	0.043395	-0.371737	0.760918	0.013552	0.074749	0.686131	-0.124381	-0.126952	1.427603	0.181126	-0.041044	0.480051	-0.590822	0.111681	-0.111069	0.685157	-0.070257	-0.129642	-0.555578	0.421674	0.112129	0.459689	0.645599	0.174039	-0.145800	-0.229666	-0.188489	0.957112	-0.098625	-0.268401	0.415881	-0.476748	-0.009187	-0.607591	0.476785	0.204698	0.531276	-0.331109	-0.243425	0.205208	0.345203	0.041401	0.612053	0.078385	0.069479	0.133753	0.047456	0.167563	-0.210376	-0.245525
P5995	-0.532374	0.452380	0.350202	0.509968	-0.132073	-0.239012	0.626556	0.028210	0.000825	-0.126016	-0.390604	-0.554039	-0.205774	0.339906	0.384078	0.754334	-0.532393	0.646303	-0.214225	0.153433	0.326306	0.414561	0.967510	0.155962	-0.460964	-0.072338	-0.030707	-0.851095	-0.393696	-0.042508	-0.619110	0.380618	0.160440	-0.376765	0.139796	-0.372305	-0.391892	-0.142130	0.567469	0.353317	0.063678	-0.574955	0.639531	0.017594	0.059740	-0.642822	-3.652687	0.580337	0.026819	-0.566980	0.051199	-0.362000	0.815481	0.078151	0.209072	0.759178	-0.134353	-0.266377	1.393802	0.124205	0.042722	0.554510	-0.639236	0.038376	0.024426	0.781840	0.011132	-0.153835	-0.686256	0.514028	0.065427	0.557836	0.646219	0.196809	-0.003629	-0.263142	-0.185903	0.982759	-0.276988	-0.274499	0.302824	-0.275354	-0.122937	-0.540290	0.398351	0.124320	0.730811	-0.439665	-0.347443	0.308782	0.284919	-0.062765	0.741278	0.046910	0.250497	0.262781	0.089595	0.205511	-0.245721	-0.461087
P8345	-0.470467	0.227920	0.447990	0.411988	-0.283591	-0.456539	0.428933	-0.160456	0.115599	-0.222773	-0.351608	-0.506477	-0.090890	0.655664	0.456425	0.783668	-0.384845	0.538535	-0.193401	-0.147446	0.334977	0.306205	0.826009	0.217364	-0.365484	0.201476	-0.004102	-0.870717	-0.317860	-0.045637	-0.572801	0.233104	-0.020912	-0.237632	0.229123	-0.370539	-0.696633	-0.196846	0.338408	0.199390	0.061651	-0.532394	0.612900	0.043262	-0.053321	-0.745690	-3.484387	0.277863	-0.217350	-0.524086	0.022636	-0.358370	0.766640	-0.119671	0.095541	0.868019	-0.021646	-0.208222	1.312889	0.273937	0.009605	0.418257	-0.686465	0.213644	-0.063300	0.549707	-0.064834	-0.212710	-0.530624	0.464229	0.069605	0.408194	0.697102	0.157427	-0.217327	-0.341718	-0.048680	1.016949	-0.321091	-0.185951	0.244469	-0.364193	0.010096	-0.483231	0.139265	0.275548	0.557625	-0.495284	-0.273917	0.063718	0.357492	0.142905	0.644287	0.258732	0.298427	-0.026539	0.040629	-0.005095	-0.200523	-0.311118
P178	-0.428514	0.391291	0.410126	0.535196	-0.064130	-0.296954	0.525806	0.029218	0.067637	-0.148012	-0.382535	-0.451484	-0.158111	0.395145	0.352975	0.885243	-0.376138	0.477412	-0.205427	0.066118	0.328535	0.386952	0.875921	0.147002	-0.552390	-0.038343	0.010058	-0.954113	-0.463254	0.114915	-0.552178	0.321756	0.179985	-0.262557	0.086320	-0.316645	-0.412005	-0.155442	0.423414	0.300669	0.074642	-0.544158	0.628311	0.056424	-0.020878	-0.655349	-3.414398	0.438352	0.025836	-0.559399	-0.015891	-0.288096	0.741305	0.043839	0.155663	0.637514	-0.058676	-0.119663	1.377242	0.185886	0.020856	0.469593	-0.542818	0.057011	-0.045875	0.655279	-0.057205	-0.142451	-0.703304	0.354914	0.102163	0.447773	0.572835	0.217940	-0.072547	-0.276232	-0.165098	0.838625	-0.178733	-0.284938	0.392209	-0.330295	0.008738	-0.534667	0.414462	0.098268	0.663033	-0.288836	-0.333950	0.217334	0.384255	-0.004076	0.679951	0.055706	0.151883	0.189815	0.130904	0.206489	-0.167294	-0.307762
P81	-0.507313	0.275799	0.466014	0.470216	-0.159383	-0.398639	0.549066	-0.001888	0.195609	-0.170346	-0.299849	-0.566941	-0.205456	0.601059	0.383224	0.792851	-0.338232	0.366431	-0.039367	-0.073239	0.386471	0.180905	0.736402	0.086148	-0.379887	-0.026235	-0.022219	-0.880129	-0.287021	0.085820	-0.493719	0.447936	0.172606	-0.303926	0.228706	-0.251392	-0.417199	-0.117435	0.481281	0.328498	0.106983	-0.564026	0.732587	0.000707	0.078555	-0.655706	-3.338441	0.205061	0.064003	-0.577721	-0.016782	-0.379674	0.718773	0.075954	-0.061046	0.698186	-0.036496	-0.271562	1.550985	0.121397	0.029441	0.622137	-0.551529	0.190126	-0.300031	0.737343	-0.082917	-0.062008	-0.583509	0.373958	0.262981	0.459607	0.693698	0.270966	-0.129825	-0.394467	-0.179093	0.939571	-0.388003	-0.262440	0.340222	-0.393622	0.028473	-0.676927	0.376719	0.254908	0.594886	-0.379917	-0.289862	0.206339	0.467864	0.189810	0.567638	0.304696	0.057594	0.071071	0.086193	0.106657	-0.208418	-0.314085
P825	-0.515442	0.268004	0.435158	0.504298	-0.264313	-0.303295	0.612981	-0.077135	0.145814	-0.148641	-0.377579	-0.588344	-0.197520	0.488801	0.459466	0.848006	-0.480425	0.421199	-0.180395	0.056326	0.417380	0.392795	0.847189	0.156377	-0.395668	0.123492	0.111442	-0.867836	-0.334677	0.028140	-0.520598	0.335750	0.048324	-0.211689	0.085656	-0.300283	-0.409488	-0.136567	0.396408	0.364972	0.026228	-0.552174	0.555519	-0.063587	-0.128904	-0.708779	-3.528308	0.349256	0.068666	-0.493826	-0.090009	-0.286441	0.658624	-0.044882	0.130886	0.649769	0.138707	-0.214382	1.245894	0.213612	-0.054471	0.579322	-0.652242	0.172118	-0.122221	0.844902	-0.066909	-0.080943	-0.550035	0.380633	0.142166	0.389485	0.684382	0.296883	-0.096671	-0.359784	-0.096740	0.860271	-0.261549	-0.308563	0.314570	-0.551919	-0.037272	-0.508615	0.205906	0.225163	0.724067	-0.405942	-0.308170	0.087308	0.399675	0.025454	0.671888	0.250708	0.263343	0.226756	0.084836	0.250918	-0.136209	-0.287942
P8138	-0.676376	0.370046	0.461438	0.681811	-0.203153	-0.198364	0.776187	-0.033103	0.101169	0.164806	-0.265005	-0.805665	-0.331455	0.522908	0.536109	0.641603	-0.305977	0.680456	-0.032978	0.055031	0.347699	0.071603	0.831462	0.064203	-0.106538	0.089529	-0.101849	-1.074343	-0.618396	-0.173153	-0.475025	0.849600	0.253915	-0.282279	0.455773	-0.235060	-0.433953	-0.341350	0.750849	-0.015166	0.073410	-0.428805	0.783345	0.003581	0.030262	-0.468306	-3.520098	0.277992	-0.078837	-0.767961	-0.112024	-0.509903	0.640230	0.222068	0.019450	0.908686	-0.010156	-0.774687	1.903810	-0.041286	0.033880	0.596596	-0.673496	0.089788	-0.153623	1.083912	0.268009	0.152957	-0.583776	0.113079	0.249183	0.485905	0.700700	0.549412	-0.171162	-0.316784	-0.342422	1.113834	-0.510617	-0.181818	0.155065	-0.403423	-0.036930	-0.871481	0.411436	0.438995	0.802108	-0.492353	-0.796742	0.319453	0.427485	-0.002089	0.754708	0.093344	-0.037022	0.116306	0.272061	0.133717	-0.121698	-0.178475
P530	-0.407975	0.447682	0.392558	0.516324	-0.064458	-0.435048	0.512498	0.027210	-0.011982	-0.245307	-0.325637	-0.587537	-0.123284	0.395737	0.356513	0.867989	-0.476996	0.565050	-0.175611	0.059323	0.368769	0.452895	0.885522	0.011002	-0.530008	-0.093223	0.109439	-1.000868	-0.502715	0.022702	-0.435386	0.314227	0.129331	-0.227726	0.008208	-0.320216	-0.438815	-0.142319	0.555961	0.298434	0.117055	-0.574226	0.675709	0.028588	0.066149	-0.764773	-3.345388	0.464172	0.007461	-0.626966	-0.021383	-0.397044	0.864620	-0.006764	0.099989	0.608065	-0.254723	-0.173191	1.243430	0.161090	-0.117329	0.492089	-0.719611	0.057214	-0.019708	0.663086	-0.048527	-0.191954	-0.684989	0.485602	0.044993	0.416809	0.559868	0.294770	-0.012283	-0.249242	-0.173745	0.845547	-0.194633	-0.212786	0.357501	-0.362914	-0.031716	-0.551971	0.510456	0.244865	0.684699	-0.276264	-0.200989	0.271785	0.384858	0.045908	0.622933	-0.046505	0.249070	0.120495	0.142131	0.126368	-0.259937	-0.339539
P40	-0.550806	0.259252	0.435686	0.641287	-0.457319	-0.422510	0.961957	-0.304746	0.044227	0.087948	-0.138374	-0.559685	-0.342745	0.541254	0.250465	0.899202	-0.280497	0.490321	-0.109714	-0.118654	0.489595	0.422993	0.896398	0.359834	-0.112898	0.095889	-0.150929	-1.183918	-0.628639	-0.087919	-0.449962	0.649847	0.098493	-0.273208	0.430878	-0.346325	-0.729259	-0.092540	0.382751	0.134950	-0.227661	-0.818331	0.673888	-0.296693	-0.190876	-0.674853	-3.069422	0.191000	-0.087148	-0.914013	-0.304719	-0.208476	0.391625	0.210771	0.080557	0.696705	0.108005	-0.782027	1.491979	0.007461	-0.004984	0.768614	-0.871852	0.150047	-0.185708	0.785766	0.162059	-0.053638	-0.629090	0.000656	0.275561	0.586641	0.770820	0.382257	-0.201296	-0.273561	-0.275578	0.991218	-0.487523	-0.266429	0.031899	-0.279580	-0.123497	-0.670421	0.337761	0.300802	0.859005	-0.326309	-0.832350	0.051197	0.433699	0.173761	0.721684	0.069995	-0.100059	0.332069	0.286642	-0.022203	-0.154018	-0.127683
P398	-0.462018	0.349733	0.453823	0.484436	-0.015969	-0.305620	0.528888	0.030528	0.032666	-0.180281	-0.314593	-0.503302	-0.110993	0.423663	0.285218	0.834505	-0.336381	0.494133	-0.163614	0.036584	0.351936	0.305304	0.823286	0.131084	-0.483043	0.002518	0.009511	-0.895532	-0.370959	0.172990	-0.511454	0.320763	0.213470	-0.264231	0.086881	-0.333587	-0.406215	-0.223284	0.430490	0.358327	0.138314	-0.519324	0.591186	0.047165	0.027057	-0.665312	-3.319571	0.407899	0.046663	-0.563381	0.011925	-0.355892	0.766848	0.061820	0.082025	0.600306	-0.035038	-0.058001	1.413567	0.169574	0.071818	0.435501	-0.588454	0.108526	-0.128683	0.603968	-0.111143	-0.199136	-0.629200	0.394200	0.140185	0.417712	0.571621	0.198294	-0.062401	-0.284265	-0.161760	0.899838	-0.109506	-0.269659	0.398129	-0.383632	-0.000031	-0.481817	0.415448	0.185759	0.630127	-0.266225	-0.261912	0.295301	0.375132	0.066112	0.617068	0.034928	0.156116	0.106857	0.060521	0.146620	-0.165519	-0.315359
P118	-0.626615	0.346677	0.317743	0.429086	-0.201056	-0.300973	0.585276	0.051831	-0.052912	-0.188087	-0.285797	-0.637687	-0.310561	0.362560	0.414167	0.846175	-0.469302	0.639535	-0.170690	0.106041	0.363003	0.346992	0.884357	0.102338	-0.402514	-0.039945	0.036039	-0.858355	-0.337079	0.062074	-0.561315	0.345880	0.135737	-0.355452	0.226680	-0.347613	-0.524892	-0.069167	0.428987	0.198526	0.027871	-0.691950	0.443649	-0.087688	-0.009001	-0.550746	-3.284115	0.371223	0.018570	-0.578008	0.079850	-0.234356	0.649040	0.083727	0.136383	0.745790	0.005534	-0.255467	1.376844	0.097837	0.051237	0.563975	-0.540795	0.049970	-0.146728	0.769778	0.090529	-0.086069	-0.661538	0.355714	0.157777	0.510794	0.592497	0.334444	-0.091587	-0.344785	-0.090964	0.974219	-0.304345	-0.215369	0.308080	-0.503379	-0.010364	-0.570126	0.280718	0.141341	0.679770	-0.391192	-0.364477	0.159333	0.307498	0.025189	0.746200	0.148743	0.214542	0.224670	0.103513	0.118635	-0.210280	-0.425036
P30	-0.418316	0.311376	0.332346	0.465172	-0.007903	-0.344526	0.592229	0.101630	0.066172	-0.261126	-0.364113	-0.500648	-0.132795	0.454268	0.366530	0.854171	-0.344100	0.357428	-0.247862	0.072925	0.360524	0.329167	0.805485	0.057740	-0.528960	-0.085501	0.073206	-0.867777	-0.323430	0.148431	-0.476651	0.315176	0.084938	-0.108358	0.182050	-0.317713	-0.531943	-0.222197	0.499062	0.356569	0.119982	-0.506926	0.750456	0.051080	0.104167	-0.750692	-3.301711	0.362683	0.002310	-0.475022	0.068591	-0.369238	0.757609	0.050241	0.124757	0.663655	-0.073325	-0.063115	1.391431	0.219386	0.135110	0.520030	-0.636622	0.092164	-0.142232	0.596923	-0.118055	-0.153495	-0.643169	0.400338	0.040145	0.416721	0.624970	0.257374	-0.062400	-0.306120	-0.228831	0.842032	-0.244629	-0.298807	0.415884	-0.476273	0.117649	-0.556643	0.451169	0.132584	0.525486	-0.310262	-0.270650	0.229051	0.309696	0.027138	0.572734	0.191660	0.200668	0.089964	0.131674	0.250786	-0.252566	-0.260989
P17	-0.613316	0.230189	0.537664	0.461552	-0.263416	-0.267464	0.776374	0.021216	0.090968	-0.103677	-0.224307	-0.608605	-0.207844	0.452392	0.277167	0.682930	-0.252754	0.441963	-0.058275	-0.071179	0.421412	0.238327	0.881525	0.141183	-0.105418	0.098951	-0.072763	-0.911584	-0.489404	0.051215	-0.530949	0.578547	0.349162	-0.117822	0.353322	-0.364879	-0.507294	-0.193684	0.387857	0.148105	0.129480	-0.653463	0.678816	-0.028723	-0.039009	-0.603587	-3.054041	0.367748	0.024613	-0.661559	-0.096689	-0.413182	0.557796	0.097385	0.025985	0.662068	0.039885	-0.506731	1.467234	-0.045907	-0.036720	0.540118	-0.679560	0.183226	-0.256805	0.706620	0.111882	-0.132972	-0.528436	0.212325	0.456543	0.517151	0.596336	0.359840	-0.177827	-0.330671	-0.227301	1.056699	-0.269826	-0.203770	0.215615	-0.495961	-0.003562	-0.677168	0.296957	0.255097	0.726975	-0.242311	-0.476990	0.139047	0.515857	0.147386	0.574163	0.147011	0.042463	0.116983	-0.017886	0.037246	-0.148091	-0.287021
P106	-0.581577	0.198459	0.334618	0.488064	-0.218104	-0.118502	0.865861	-0.149927	-0.007073	0.067040	-0.225756	-0.551573	-0.318856	0.474614	0.356283	0.611671	-0.237621	0.587772	-0.031597	-0.082920	0.362168	0.251549	0.890207	0.203317	-0.064024	0.099842	-0.112463	-0.977687	-0.645561	-0.099356	-0.514924	0.692305	0.364564	-0.300012	0.451962	-0.216328	-0.505608	-0.206089	0.671981	-0.023053	0.172650	-0.582700	0.736936	0.068406	-0.049443	-0.519034	-3.395671	0.362624	-0.073074	-0.875166	-0.008336	-0.322673	0.613859	0.128717	0.070494	0.893410	0.167276	-0.820612	1.770568	-0.087552	0.055675	0.679959	-0.651091	0.250707	-0.105097	0.920733	0.246378	0.064379	-0.651365	0.237500	0.421292	0.433264	0.734590	0.461140	-0.074549	-0.386359	-0.417455	1.204634	-0.410099	-0.180168	0.278330	-0.421034	-0.038439	-0.870625	0.370834	0.284437	0.774568	-0.336731	-0.863013	0.292528	0.433965	0.001680	0.787696	0.136206	0.052052	0.260413	0.173016	-0.004018	-0.135090	-0.209116
P945	-0.451082	0.365328	0.431436	0.529912	-0.311716	-0.306610	0.795565	-0.003219	0.113173	-0.078646	-0.314064	-0.655098	-0.296408	0.483042	0.376678	0.910478	-0.414861	0.450639	-0.247575	-0.014418	0.364300	0.413483	1.042293	0.178753	-0.351760	0.065438	0.012500	-0.996960	-0.459092	-0.017496	-0.506553	0.425556	0.121473	-0.243352	0.129163	-0.389565	-0.461014	-0.163936	0.482689	0.322403	0.037880	-0.713491	0.695432	-0.043760	-0.050012	-0.717110	-3.288809	0.329222	0.061505	-0.705249	-0.000446	-0.272372	0.610478	0.057792	0.150354	0.799889	0.060118	-0.373256	1.346359	0.048698	0.090549	0.557762	-0.561005	0.141838	-0.193374	0.831496	0.007472	-0.056234	-0.630436	0.466039	0.190089	0.515226	0.669537	0.342800	-0.034120	-0.245960	-0.200808	0.994451	-0.206794	-0.282106	0.325745	-0.361058	-0.003499	-0.530814	0.299073	0.105302	0.833073	-0.309316	-0.553792	0.145487	0.475277	0.055021	0.820096	0.200797	0.125751	0.300169	0.131861	0.098474	-0.102733	-0.430026
P31	-0.715199	0.118348	0.032166	0.449897	-0.252466	0.037244	0.701895	-0.040221	-0.045378	0.086499	-0.250596	-0.473400	-0.359175	0.409966	0.783119	0.196556	0.003554	0.722624	0.057944	0.088990	0.107424	-0.139265	0.665152	-0.134657	-0.142215	-0.061946	-0.101436	-0.630708	-0.325839	-0.026497	-0.554490	0.782223	0.161296	-0.256179	0.184646	-0.292073	-0.292736	-0.403074	0.784110	-0.067376	0.424636	-0.154097	0.653716	0.261434	-0.315346	-0.226272	-4.055107	0.336379	-0.325341	-0.431555	-0.030286	-0.488918	0.582077	0.213486	-0.125338	0.812731	-0.144508	-0.558269	1.674567	-0.199520	0.143406	0.426394	-0.487025	0.028538	-0.260575	0.889519	0.211641	0.155352	-0.770841	0.544987	0.179106	0.421181	0.393386	0.501820	-0.034757	-0.478068	-0.357764	1.028025	-0.639701	-0.033994	0.273223	-0.171756	0.224637	-1.045381	0.219162	0.366339	0.520175	-0.357702	-0.606739	0.324014	0.274142	0.037823	0.679079	0.371310	0.290531	-0.001847	0.166901	0.203482	-0.093024	-0.040499
P194	-0.652154	0.219233	0.347023	0.557215	-0.459646	-0.349371	0.952841	-0.193223	0.121895	0.081421	-0.081211	-0.609250	-0.238986	0.500330	0.330001	0.706694	-0.345238	0.635559	-0.119837	-0.081913	0.301965	0.436784	1.054001	0.271267	-0.055028	0.116269	-0.152282	-1.044668	-0.552752	-0.045700	-0.429929	0.652432	0.211598	-0.235802	0.376536	-0.421997	-0.651169	-0.128088	0.582429	0.192192	-0.131088	-0.820048	0.861465	-0.124399	-0.064974	-0.727851	-3.214030	0.330436	-0.047045	-0.849622	-0.115378	-0.304152	0.511096	0.214240	0.124186	0.864556	0.126628	-0.842823	1.431858	-0.055593	-0.035323	0.768737	-0.804286	0.163903	-0.127212	0.894194	0.248085	-0.031541	-0.547062	0.326461	0.257807	0.471447	0.687387	0.580094	-0.020980	-0.231832	-0.229671	1.105342	-0.422030	-0.155727	0.167350	-0.330973	-0.095010	-0.650706	0.328211	0.206603	0.816188	-0.277751	-0.835046	0.098853	0.445014	0.126763	0.744800	0.071873	0.036286	0.318843	0.305868	-0.056398	-0.223856	-0.281594
P1303	-0.681578	0.336710	0.327253	0.376123	-0.215721	-0.131500	0.611467	-0.196199	0.118769	-0.042737	-0.324941	-0.584183	-0.193466	0.283155	0.531640	0.674920	-0.405599	0.374375	-0.295132	-0.043018	0.154602	0.324609	0.936675	0.321575	-0.218546	0.025020	-0.063513	-0.898264	-0.400720	0.030088	-0.673704	0.497263	0.159240	-0.363665	0.149312	-0.329843	-0.515609	-0.108511	0.475439	0.104058	-0.088933	-0.705300	0.496507	-0.006081	-0.165192	-0.559986	-3.353095	0.362120	-0.095103	-0.527408	-0.046829	-0.278828	0.522019	0.090037	0.133273	0.606219	0.039247	-0.439197	1.296383	0.134593	0.094847	0.569743	-0.659581	0.147022	-0.237220	0.742807	0.071405	-0.179371	-0.663058	0.288326	0.091153	0.531612	0.530724	0.204319	-0.103340	-0.334110	-0.131986	0.866672	-0.268088	-0.271714	0.295245	-0.386702	0.079966	-0.674400	0.204459	0.020325	0.625977	-0.492069	-0.468773	0.087226	0.528435	-0.054059	0.730636	0.320645	0.056370	0.251268	0.025428	0.140553	-0.130018	-0.284378
P1382	-0.647203	0.121112	0.430543	0.623296	-0.414435	-0.389771	0.897296	-0.093506	0.211748	0.093988	-0.082610	-0.514595	-0.182745	0.551585	0.357599	0.827777	-0.365865	0.554578	-0.098127	-0.117955	0.261123	0.457587	0.982663	0.270858	-0.078818	0.197409	-0.155703	-1.100191	-0.722332	-0.025617	-0.492188	0.686036	0.259728	-0.155925	0.420387	-0.335045	-0.680643	-0.024956	0.533390	0.125488	-0.185206	-0.757984	0.829875	-0.258405	-0.085524	-0.702033	-3.232088	0.247561	-0.094926	-0.781198	-0.155176	-0.243863	0.482118	0.160155	0.159616	0.849471	0.204990	-0.809273	1.498961	0.069533	-0.153214	0.772019	-0.804872	0.168919	-0.096103	0.837495	0.213377	-0.051203	-0.570049	0.138795	0.317648	0.387512	0.650079	0.478676	-0.071645	-0.285781	-0.270553	0.988255	-0.546518	-0.035482	0.135086	-0.457203	-0.002069	-0.597102	0.414707	0.383871	0.821760	-0.023574	-0.796243	0.060342	0.359977	0.143483	0.697547	0.048050	0.024259	0.279571	0.294557	-0.009848	-0.117158	-0.146056
P344	-0.713267	0.151514	0.333084	0.567248	-0.360982	-0.329834	0.776887	-0.151421	0.147436	-0.079052	-0.351125	-0.532876	-0.380214	0.696397	0.285884	0.618431	-0.226544	0.493152	-0.114243	-0.103602	0.189021	0.302186	0.963865	0.214597	-0.127124	-0.023030	-0.031876	-0.946035	-0.492880	-0.015247	-0.629999	0.536704	0.038648	-0.206226	0.445022	-0.348081	-0.712551	-0.066436	0.516068	0.312048	-0.159942	-0.686721	0.792771	-0.052446	-0.129830	-0.800924	-3.524387	0.315858	-0.040570	-0.592215	-0.030149	-0.351091	0.558990	0.147498	0.147116	1.021613	0.050399	-0.647502	1.548808	0.240093	0.074987	0.624010	-0.721421	0.163613	0.009404	0.861820	0.186412	-0.131292	-0.622821	0.270081	-0.007229	0.467668	0.744886	0.351318	-0.068903	-0.296860	-0.383546	1.080209	-0.581576	-0.189714	0.205852	-0.455644	-0.114065	-0.656230	0.389703	0.316603	0.666054	-0.437482	-0.660694	0.200457	0.193472	0.133276	0.659971	0.227830	0.018959	0.310305	0.206469	0.170323	-0.222008	-0.154730
P3373	-0.763735	0.043579	-0.449714	0.091927	-0.681075	0.367747	0.562071	-0.193625	-0.021455	0.170080	-0.593638	-0.117131	-0.457677	0.645974	0.391619	0.130591	0.289938	0.773910	-0.046864	0.072352	0.032873	-0.071088	0.025459	-0.108011	0.343398	-0.422942	0.041346	-0.612217	-0.535415	-0.027113	-0.416828	0.843237	-0.142046	-0.752171	-0.012882	-0.235743	0.040079	0.218131	0.821709	-0.451786	0.265240	-0.404533	0.469730	-0.235606	-0.304992	-0.189018	-4.286086	0.158523	-0.652208	-0.352883	-0.416395	-0.259406	0.154799	0.944788	-0.118326	1.080398	-0.325834	-0.404006	1.341752	0.058372	0.102251	0.129533	0.018410	0.485122	-0.016040	1.049646	0.080538	0.368007	-1.030866	0.273773	-0.304651	0.217230	0.189757	0.033117	0.035093	-0.271766	-0.699345	0.974264	-0.853993	-0.443226	-0.001198	-0.122193	0.206373	-0.899400	0.419066	0.506468	0.651722	-0.248700	-0.554542	0.403297	0.467015	0.133341	0.250787	0.400340	0.383040	0.142667	0.581252	0.128872	0.284673	0.131576
P37	-0.515077	0.383565	0.400468	0.428654	0.013689	-0.480178	0.559377	0.097494	0.119308	-0.122391	-0.357681	-0.533846	-0.105079	0.442248	0.356687	0.832065	-0.407443	0.624339	-0.021490	0.063162	0.317328	0.196961	0.833939	0.047738	-0.512125	-0.013359	0.034191	-0.973896	-0.415570	0.089933	-0.584349	0.341790	0.259219	-0.174361	0.165236	-0.284081	-0.515630	-0.271092	0.389130	0.356456	0.168898	-0.527294	0.661886	0.108286	0.014055	-0.669846	-3.329805	0.414785	0.098380	-0.552667	-0.036997	-0.453550	0.797202	0.040186	0.022129	0.660168	-0.125573	-0.157185	1.420452	0.271689	0.033870	0.417266	-0.680152	0.076495	0.040166	0.601137	-0.152457	-0.194004	-0.655873	0.384890	0.071388	0.412710	0.658581	0.148783	-0.100537	-0.160628	-0.185979	0.948688	-0.167016	-0.119605	0.329469	-0.349763	0.000368	-0.667133	0.403938	0.273870	0.456927	-0.358916	-0.145810	0.208518	0.382482	0.227029	0.513852	0.110137	0.253226	-0.005743	-0.044220	0.161509	-0.281983	-0.308735
P112	-0.498325	0.216587	0.403237	0.640533	-0.437467	-0.425253	0.977180	-0.045369	0.147374	0.137639	0.094476	-0.472663	-0.208656	0.504299	0.096151	0.861005	-0.313132	0.606699	-0.181893	-0.144522	0.335019	0.492463	0.871129	0.221531	-0.080891	0.355898	-0.077344	-1.232511	-0.959321	-0.027703	-0.375467	0.640470	0.257044	-0.200573	0.452280	-0.459277	-0.654514	0.050635	0.450591	0.162479	-0.346377	-0.829989	0.832846	-0.260444	-0.108431	-0.745128	-2.966071	0.378884	-0.137621	-0.778466	-0.265341	-0.111201	0.389298	0.260953	0.215301	0.773715	0.025687	-0.747968	1.405417	-0.064425	-0.345697	0.836915	-0.854952	-0.028510	-0.051879	0.800741	0.249834	-0.093983	-0.437178	-0.079685	0.370783	0.411202	0.571075	0.536298	-0.128860	-0.235961	-0.240725	0.876260	-0.514576	-0.018659	0.084347	-0.296564	-0.011781	-0.474240	0.406633	0.358547	0.797727	0.046516	-0.777574	0.012004	0.389542	0.163330	0.694436	-0.132782	-0.001497	0.314343	0.391311	-0.032141	-0.195088	-0.124039
P807	-0.428422	0.339551	0.372138	0.495489	-0.055608	-0.272090	0.557626	0.081680	0.127036	-0.160577	-0.284487	-0.457747	-0.202621	0.401007	0.341412	0.866301	-0.370333	0.480104	-0.147276	0.046788	0.388741	0.335883	0.804531	0.096935	-0.474817	0.041477	0.015744	-0.951598	-0.362900	0.089752	-0.524063	0.411514	0.275721	-0.234708	0.065990	-0.305474	-0.424245	-0.180004	0.492901	0.328501	0.100484	-0.574078	0.592956	-0.009923	0.024916	-0.675483	-3.198100	0.351668	0.088250	-0.568678	0.016170	-0.308248	0.745302	0.051517	0.025334	0.625378	-0.000367	-0.135547	1.421582	0.103552	0.026207	0.553568	-0.589826	0.015282	-0.070825	0.663911	-0.088655	-0.144581	-0.662627	0.331877	0.145694	0.436877	0.542682	0.313874	-0.169482	-0.303582	-0.114321	0.851305	-0.172466	-0.253926	0.381189	-0.404078	0.025530	-0.540662	0.411420	0.184627	0.589068	-0.266806	-0.199471	0.216795	0.342229	0.011206	0.643340	0.022067	0.157655	0.044523	0.166145	0.148606	-0.160468	-0.345950
P355	-0.622509	0.285647	0.209956	0.451464	-0.185637	-0.184274	0.884248	-0.205230	-0.011308	0.144825	-0.344746	-0.685156	-0.596620	0.666668	0.540927	0.665371	-0.088237	0.594887	-0.105997	-0.013826	0.227174	0.061765	0.878504	0.106485	-0.125290	0.064342	-0.004246	-0.996995	-0.529433	-0.222941	-0.543752	0.768013	0.183769	-0.393857	0.446506	-0.154733	-0.380614	-0.158607	0.668999	0.018684	0.131564	-0.541235	0.540684	0.112520	-0.388217	-0.263425	-3.974629	0.266859	-0.236782	-0.629025	-0.157035	-0.315018	0.512557	0.303006	0.050316	0.844469	0.221920	-0.747695	1.769199	-0.134897	0.081466	0.606609	-0.495279	0.313344	0.017776	1.071878	0.257711	0.234173	-0.890015	0.220312	-0.044637	0.528257	0.654722	0.247958	-0.018399	-0.422523	-0.467195	1.120960	-0.478698	-0.272847	0.216538	-0.291874	-0.135149	-1.044858	0.235931	0.269679	0.810514	-0.654737	-0.951008	0.295594	0.260767	0.023109	0.987076	0.237172	-0.075089	0.109105	0.380429	0.285461	-0.003278	-0.299028
P8739	-0.594427	0.159956	0.414611	0.504582	-0.182228	-0.218800	0.661227	0.027419	0.100400	-0.027289	-0.206729	-0.533397	-0.196561	0.380195	0.449499	0.726675	-0.339862	0.421781	-0.105603	-0.034725	0.362186	0.329603	0.801794	0.177385	-0.267742	0.073234	-0.048354	-0.916652	-0.406300	0.069286	-0.500042	0.420918	0.242187	-0.142954	0.313694	-0.322175	-0.529327	-0.230757	0.479738	0.256783	0.139475	-0.632662	0.701831	-0.042074	0.045349	-0.704184	-3.206224	0.342666	0.171465	-0.662135	-0.092111	-0.452283	0.668839	0.093985	0.006830	0.820118	0.095403	-0.443276	1.563216	0.068871	-0.062012	0.489690	-0.664890	0.125515	-0.098525	0.862732	-0.039510	-0.051084	-0.585109	0.281241	0.269773	0.414562	0.694497	0.395431	-0.084854	-0.303599	-0.324472	1.030659	-0.301218	-0.184910	0.303491	-0.507363	0.023020	-0.769361	0.396032	0.200452	0.752398	-0.269583	-0.476807	0.164833	0.379645	0.099105	0.582141	0.073408	0.130104	0.215757	0.119902	0.137477	-0.144286	-0.306062
P1889	-0.661406	0.130386	0.476247	0.683971	-0.409619	-0.481488	0.990206	-0.052002	0.106624	0.173570	-0.101125	-0.542316	-0.272478	0.615437	0.181574	0.752041	-0.286841	0.573682	-0.120298	-0.115310	0.326212	0.482714	0.947258	0.273288	-0.127781	0.179302	-0.212744	-1.202182	-0.757050	0.035710	-0.395970	0.627965	0.293746	-0.128856	0.503864	-0.435557	-0.678314	-0.167643	0.413715	0.192927	-0.277815	-0.755672	0.803784	-0.258606	-0.068326	-0.788337	-2.920869	0.290925	-0.042251	-0.796398	-0.164286	-0.201972	0.409630	0.271690	0.185884	0.761682	0.129392	-0.746804	1.529039	0.047238	-0.197298	0.786564	-0.912188	0.090105	-0.070134	0.770455	0.335858	-0.090472	-0.512441	0.126267	0.262994	0.466663	0.756076	0.473862	-0.087537	-0.156203	-0.297652	0.977841	-0.490829	-0.097026	0.139473	-0.457437	-0.015084	-0.630865	0.467273	0.426325	0.710891	-0.038590	-0.740607	0.038566	0.354458	0.184812	0.694306	-0.098704	-0.018911	0.352938	0.303071	-0.019143	-0.196700	-0.176845
P461	-0.544724	0.281031	0.453674	0.536998	-0.055794	-0.204198	0.601698	0.062259	0.072663	-0.078676	-0.236153	-0.487484	-0.179357	0.430571	0.323150	0.750596	-0.302345	0.503151	-0.130761	-0.040606	0.321334	0.289599	0.813586	0.070921	-0.472375	0.138080	-0.042278	-0.902696	-0.474616	0.112523	-0.475996	0.470371	0.334424	-0.218503	0.229570	-0.378962	-0.460482	-0.240012	0.417217	0.286750	0.124968	-0.497130	0.662523	0.009014	-0.082045	-0.693442	-3.335818	0.419377	-0.019235	-0.547347	-0.169843	-0.319676	0.795545	0.041779	0.108034	0.780831	0.106527	-0.284454	1.504642	0.084894	0.005337	0.478834	-0.601817	0.087066	-0.134193	0.719249	-0.020601	-0.114201	-0.577320	0.262394	0.183594	0.441597	0.585096	0.341584	-0.119578	-0.311594	-0.201150	0.922739	-0.207604	-0.183800	0.358879	-0.458386	0.055427	-0.615017	0.408639	0.217038	0.650326	-0.199520	-0.441103	0.196291	0.334665	0.036551	0.581245	0.083919	0.121047	0.082085	0.024505	0.136929	-0.159821	-0.247340
P6087	-0.661536	0.223313	0.337605	0.558467	-0.433540	-0.218064	0.841603	-0.041713	0.051704	0.126957	-0.115794	-0.572919	-0.199487	0.394202	0.248014	0.585716	-0.399911	0.543414	-0.227992	-0.066166	0.404659	0.376850	0.864641	0.218667	-0.073678	0.199193	-0.139666	-0.987277	-0.603928	-0.000547	-0.511403	0.592899	0.347176	-0.267095	0.332940	-0.309472	-0.535377	-0.050985	0.436017	0.089240	-0.183071	-0.731292	0.671426	-0.134634	-0.254294	-0.685593	-3.103077	0.259363	0.003895	-0.833452	-0.188520	-0.129135	0.600746	0.187894	0.097346	0.780227	0.089660	-0.720606	1.424743	-0.107797	-0.129767	0.785730	-0.726686	0.072527	-0.192454	0.936947	0.151737	-0.148189	-0.517316	0.155231	0.299251	0.442006	0.590825	0.542947	-0.057639	-0.421623	-0.062332	0.977679	-0.470421	-0.074557	0.133071	-0.475436	-0.046117	-0.570040	0.098020	0.289448	0.724569	-0.184832	-0.595294	-0.000266	0.460011	0.188907	0.654342	0.132124	0.040373	0.352323	0.177680	-0.087271	-0.132974	-0.285254
P609	-0.528098	0.265621	0.494686	0.501225	-0.035633	-0.142643	0.572150	0.063212	0.070817	-0.103800	-0.259484	-0.609580	-0.217279	0.518141	0.372675	0.857761	-0.432027	0.378812	-0.214598	0.100716	0.412232	0.346641	0.853112	0.122527	-0.458743	0.096056	-0.007736	-0.885883	-0.448204	0.086304	-0.598358	0.437587	0.211996	-0.215579	0.173538	-0.341851	-0.385710	-0.235966	0.487767	0.336022	0.107350	-0.544910	0.661617	0.081574	0.016632	-0.632289	-3.335013	0.430491	0.072287	-0.520837	-0.128644	-0.278939	0.793952	0.111869	0.109378	0.630295	0.001956	-0.242006	1.433564	0.096590	0.020018	0.549483	-0.596608	0.149579	-0.149094	0.773600	-0.115228	-0.084911	-0.615072	0.316591	0.251714	0.557339	0.609803	0.205320	-0.122821	-0.310735	-0.246294	0.924029	-0.167710	-0.315094	0.331834	-0.427171	0.106946	-0.571844	0.456007	0.137318	0.621619	-0.276558	-0.406978	0.192471	0.333304	0.005338	0.529244	0.061795	0.078788	0.212013	0.069542	0.243310	-0.146030	-0.302965
P462	-0.449265	0.347256	0.425085	0.487071	-0.022320	-0.225572	0.495136	0.017083	-0.060269	-0.232821	-0.391609	-0.445840	-0.178587	0.431195	0.379678	0.788424	-0.314062	0.578383	-0.124421	0.064563	0.442765	0.275486	0.860848	0.094396	-0.519169	0.031163	-0.005597	-0.872939	-0.357433	0.122286	-0.570152	0.364632	0.142853	-0.244943	0.071543	-0.242325	-0.444606	-0.216773	0.465368	0.326297	0.131640	-0.569288	0.600739	-0.039501	-0.007231	-0.742442	-3.156048	0.240212	-0.053514	-0.499683	0.180241	-0.327463	0.795208	0.194162	0.029393	0.607703	-0.088868	-0.010003	1.391980	0.201597	-0.028283	0.547596	-0.549045	0.068627	-0.014398	0.575188	-0.169926	-0.198233	-0.652409	0.433320	0.146098	0.458137	0.567226	0.188931	-0.048526	-0.249834	-0.125203	0.833323	-0.179942	-0.311999	0.403940	-0.335877	0.046436	-0.447931	0.411876	0.184333	0.546222	-0.280189	-0.178174	0.179670	0.336664	-0.020339	0.651042	0.069221	0.175664	0.176622	0.058386	0.076367	-0.217533	-0.289550
P7888	-0.542328	0.249852	0.385756	0.710166	-0.333914	-0.395318	0.851724	-0.103701	0.143832	0.026090	-0.162384	-0.428559	-0.319322	0.469446	0.324656	0.954226	-0.360963	0.478714	-0.165551	-0.071679	0.278607	0.516766	1.041429	0.268963	-0.286349	0.099839	-0.038990	-1.136235	-0.588972	-0.036149	-0.501753	0.548085	0.106886	-0.216983	0.320461	-0.445235	-0.665355	-0.114293	0.444165	0.326471	-0.192213	-0.762255	0.797042	-0.147609	-0.083603	-0.789732	-3.387015	0.380341	-0.035892	-0.766508	-0.102467	-0.219169	0.566899	0.212967	0.189216	0.758813	0.091647	-0.652165	1.453668	0.106629	-0.028244	0.716254	-0.784153	0.081971	-0.051581	0.765059	0.139741	-0.067901	-0.637347	0.278374	0.211712	0.427501	0.632160	0.416427	-0.123002	-0.239714	-0.151081	1.014630	-0.429713	-0.210153	0.269296	-0.413778	-0.084579	-0.555108	0.447640	0.228111	0.805959	-0.132122	-0.734031	0.197423	0.343592	0.040808	0.759275	-0.044493	0.121609	0.233834	0.342974	0.074913	-0.222575	-0.229321
P241	-0.628432	0.047872	0.419027	0.524815	-0.375271	-0.371620	0.861282	-0.189070	-0.006286	0.209975	0.029057	-0.455939	-0.192949	0.562392	0.179676	0.554426	-0.149675	0.723585	-0.115294	-0.185379	0.156252	0.449092	0.802373	0.201198	0.014891	0.236583	-0.127326	-1.142620	-0.740103	-0.089531	-0.368882	0.794626	0.238401	-0.133510	0.515235	-0.342934	-0.685830	-0.014258	0.449661	-0.197430	-0.088405	-0.773535	0.671339	-0.246769	-0.224385	-0.635613	-2.905061	0.336124	-0.133117	-0.787986	-0.322085	-0.202136	0.239320	0.270484	0.273770	0.841154	0.151444	-0.927489	1.540322	-0.324313	-0.168333	0.680840	-1.012663	0.190655	-0.025411	0.886707	0.450030	-0.073258	-0.359367	-0.039485	0.553456	0.419398	0.560613	0.595787	-0.040890	-0.347381	-0.287495	0.944274	-0.647268	0.116497	0.175173	-0.382888	-0.007378	-0.706691	0.113957	0.384895	0.761623	-0.016053	-0.922703	0.057096	0.525659	0.073109	0.562391	-0.039702	-0.135506	0.378894	0.404232	-0.191761	-0.245006	-0.113627
P2632	-0.505635	0.250873	0.424016	0.572272	-0.100290	-0.316494	0.691064	0.106700	0.135179	-0.083370	-0.328647	-0.511624	-0.217465	0.400854	0.371216	0.746424	-0.395735	0.473343	-0.103047	0.114207	0.395644	0.345598	0.870789	0.107739	-0.340619	0.101914	-0.095862	-0.842843	-0.557755	0.103767	-0.556699	0.475029	0.224374	-0.224534	0.219155	-0.341632	-0.489427	-0.231406	0.370983	0.274741	-0.003276	-0.595076	0.610902	-0.074669	-0.150866	-0.708566	-3.156320	0.341816	0.118161	-0.657399	-0.098003	-0.301631	0.613004	0.078726	0.086095	0.722823	-0.024773	-0.378386	1.407057	0.004199	-0.032296	0.487379	-0.630992	0.120598	-0.202357	0.711506	0.056395	-0.136350	-0.591142	0.328609	0.244704	0.502370	0.718403	0.435699	-0.159934	-0.370170	-0.088275	0.894259	-0.225573	-0.082264	0.390300	-0.519313	-0.002129	-0.553966	0.301515	0.128978	0.564034	-0.146524	-0.339888	0.151260	0.414244	0.192421	0.619425	0.120412	0.071465	0.163308	-0.034384	0.119825	-0.202303	-0.332991
P131	-0.841060	0.115538	0.116449	0.413138	-0.266304	-0.028884	0.445357	-0.243330	0.063006	0.110888	-0.615274	-0.896605	-0.585425	0.736749	0.497955	0.332983	0.122886	0.798898	-0.016056	0.093246	0.150896	-0.163540	0.402736	-0.090037	0.107313	-0.082964	-0.022548	-0.559864	-0.640223	-0.160386	-0.400513	0.622913	-0.099187	-0.407250	0.253641	-0.224906	-0.393309	-0.232418	0.697576	-0.110680	0.362055	-0.221562	0.335250	0.170503	-0.256431	-0.054526	-4.396631	0.312728	-0.433216	-0.527009	-0.288058	-0.283356	0.279239	0.467985	-0.095445	1.053140	-0.146376	-0.563253	1.617943	0.129447	-0.020272	0.056809	-0.253373	0.245496	0.065809	0.992090	0.151734	0.146771	-0.625079	0.386153	-0.008097	0.284492	0.311330	0.190770	-0.120569	-0.188229	-0.631156	1.319047	-0.821313	0.042086	0.118023	-0.296553	-0.039035	-1.110366	0.103949	0.570667	0.580893	-0.594378	-0.877067	0.349914	0.317760	0.337855	0.406356	0.320196	0.123129	0.097185	0.210962	0.319951	0.111962	-0.005372
P57	-0.492374	0.040550	0.437498	0.498829	-0.473627	-0.373227	0.914717	-0.220925	0.064476	0.286668	0.146435	-0.437560	-0.152092	0.444617	0.021673	0.580382	-0.375500	0.614235	-0.279467	-0.159300	0.147722	0.441622	0.775326	0.276084	-0.025247	0.302679	-0.170402	-1.127826	-0.822379	-0.077022	-0.342462	0.716475	0.290470	-0.068695	0.530159	-0.325099	-0.628553	-0.010106	0.460101	-0.134919	-0.325677	-0.768241	0.683804	-0.379054	-0.268014	-0.674635	-2.591006	0.289672	-0.126184	-0.889617	-0.307451	-0.012293	0.323089	0.313281	0.216308	0.696098	0.107397	-0.875502	1.507328	-0.145979	-0.304363	0.823880	-0.989849	0.106780	-0.159080	0.819485	0.323562	-0.293440	-0.458862	-0.059259	0.501985	0.419589	0.586851	0.479890	-0.035343	-0.274931	-0.173034	0.844222	-0.646708	0.001525	0.046634	-0.372454	0.049729	-0.620264	0.270716	0.429119	0.704594	0.080623	-0.771796	-0.069574	0.480120	0.263963	0.711106	-0.068756	-0.121730	0.524831	0.469741	-0.173403	-0.133173	-0.215503
P176	-0.537827	0.335552	0.401366	0.515637	-0.120981	-0.218713	0.446232	0.040129	0.105204	-0.064739	-0.353791	-0.475539	-0.222898	0.545080	0.296339	0.800311	-0.343673	0.574895	-0.125321	0.046286	0.285194	0.218257	0.798794	0.181188	-0.494774	-0.027585	-0.037324	-0.821147	-0.443833	0.100534	-0.531327	0.412037	0.159379	-0.319283	0.200269	-0.317321	-0.560384	-0.160341	0.451806	0.342192	0.099126	-0.509374	0.649773	0.004521	-0.038311	-0.708784	-3.538435	0.393076	-0.046274	-0.491888	-0.100539	-0.256048	0.693439	0.164924	0.141611	0.715733	-0.110402	-0.183124	1.428961	0.092199	0.054561	0.401394	-0.465980	0.094755	0.031736	0.704879	-0.122381	-0.143690	-0.628052	0.412429	0.115461	0.446778	0.597965	0.201925	-0.087880	-0.325324	-0.231203	0.871688	-0.229368	-0.177241	0.395128	-0.309839	0.105699	-0.605881	0.286834	0.135989	0.570375	-0.340725	-0.353866	0.117073	0.349851	0.065479	0.629979	0.113008	0.106350	0.115185	0.063557	0.137478	-0.159179	-0.196174
P1344	-0.599799	0.232830	0.422694	0.537007	-0.318007	-0.163207	0.729769	-0.011590	0.080370	0.171781	-0.093491	-0.585201	-0.220785	0.347860	0.386559	0.737668	-0.389832	0.395566	-0.316118	-0.092557	0.344300	0.272808	0.785218	0.208729	-0.133968	0.166009	-0.091832	-1.019632	-0.651829	0.089597	-0.543072	0.591220	0.372352	-0.232612	0.334311	-0.161149	-0.477993	-0.122854	0.543147	0.027307	-0.013690	-0.545297	0.740124	-0.126715	-0.072604	-0.568204	-3.021544	0.364697	-0.025673	-0.796011	-0.361224	-0.185126	0.581121	0.113793	0.002432	0.720271	0.208505	-0.747402	1.572112	-0.053435	-0.135193	0.687451	-0.734028	0.142425	-0.329749	0.995565	-0.020409	0.022395	-0.544064	-0.043921	0.373890	0.561110	0.529025	0.541268	-0.080440	-0.407069	-0.175658	1.015150	-0.418195	-0.135801	0.202822	-0.390175	0.101160	-0.632578	0.249438	0.229804	0.871782	-0.260964	-0.697170	0.254564	0.396754	0.055433	0.753152	0.140080	-0.138189	0.299640	0.113022	0.024606	0.007973	-0.223067
P1366	-0.668381	0.054400	0.094621	0.298813	-0.427902	-0.034146	0.862818	-0.339092	-0.132670	0.296997	-0.429361	-0.722295	-0.733013	0.618538	0.401653	0.595206	0.029055	0.854832	-0.148054	0.061539	0.126249	-0.085488	0.601327	0.162422	-0.016879	-0.066784	-0.022390	-0.905079	-0.601938	-0.240874	-0.619242	0.888260	0.072406	-0.463615	0.533235	-0.335098	-0.211085	-0.138488	0.683682	-0.211066	0.173529	-0.287471	0.560868	-0.058307	-0.501526	-0.046345	-4.394957	0.157610	-0.382501	-0.698367	-0.246017	-0.231041	0.399424	0.589988	0.071251	0.976448	0.120003	-0.780814	1.766348	0.001207	-0.001218	0.594123	-0.375284	0.478320	0.179398	1.015503	0.052397	0.160420	-0.879196	0.118554	-0.023728	0.480409	0.614899	0.056764	-0.018397	-0.156335	-0.693755	1.150532	-0.712824	-0.383845	0.045271	-0.134174	-0.059623	-1.076365	0.138206	0.554769	0.793164	-0.587863	-0.855499	0.166849	0.331251	0.123258	0.647683	0.394686	-0.053485	0.168856	0.502679	0.313004	0.203464	-0.057200
P25	-0.554933	0.191171	0.395140	0.504551	-0.287855	-0.329833	0.815200	-0.110976	0.087395	0.005702	-0.183417	-0.546082	-0.331551	0.548876	0.383930	0.770245	-0.172848	0.447662	-0.082673	-0.115751	0.450987	0.265660	0.815327	0.224507	-0.075478	0.018485	-0.017012	-1.030585	-0.555195	-0.081641	-0.454943	0.645653	0.202634	-0.205217	0.568704	-0.236843	-0.622370	-0.117346	0.486713	0.082005	0.013783	-0.678038	0.832214	-0.080173	-0.041086	-0.649191	-3.186902	0.240584	0.021186	-0.822192	-0.102672	-0.360104	0.633852	0.196823	0.089727	0.810401	0.101979	-0.858457	1.644621	0.060180	0.026418	0.680798	-0.764124	0.157447	-0.125319	0.941516	0.149210	0.032374	-0.637172	0.100367	0.287261	0.467882	0.682459	0.482785	-0.100388	-0.349416	-0.340506	1.124258	-0.455649	-0.187675	0.201539	-0.383748	-0.044869	-0.751827	0.451427	0.303486	0.745681	-0.306112	-0.781643	0.261156	0.355212	0.072600	0.703755	0.175297	-0.020437	0.212033	0.199333	0.045386	-0.208563	-0.150311
P1336	-0.522942	0.384925	0.366470	0.545311	-0.104705	-0.209139	0.629526	0.025294	0.018255	-0.162535	-0.319629	-0.597030	-0.299983	0.399150	0.360505	0.904173	-0.440895	0.614981	-0.140598	0.056401	0.361270	0.324057	0.904396	0.137048	-0.458137	0.026751	0.052645	-0.878395	-0.533513	0.014467	-0.538257	0.375916	0.194685	-0.197418	0.189929	-0.279442	-0.499897	-0.265709	0.478676	0.261857	0.165390	-0.562437	0.592885	0.063983	0.018674	-0.645342	-3.257259	0.441588	0.099004	-0.632729	-0.040551	-0.364362	0.673333	0.125186	0.071148	0.694652	-0.103504	-0.257825	1.405330	0.034945	0.034093	0.465575	-0.656111	0.118911	-0.082581	0.771964	0.016437	-0.112001	-0.614590	0.318970	0.205942	0.550349	0.636801	0.356002	-0.152379	-0.283782	-0.179680	0.941867	-0.141181	-0.159955	0.394938	-0.462601	-0.021379	-0.637100	0.360696	0.109888	0.639134	-0.276063	-0.418239	0.240537	0.375412	0.043442	0.582215	0.053653	0.134636	0.053612	0.126130	0.069558	-0.237959	-0.321585
P126	-0.575562	0.247635	0.422115	0.437954	-0.279559	-0.149016	0.746556	0.127792	0.052710	-0.014192	-0.224614	-0.640595	-0.089660	0.420292	0.267439	0.630563	-0.400356	0.469557	-0.125596	-0.078584	0.264979	0.152565	0.690690	0.131347	-0.286406	0.142328	-0.102162	-0.773069	-0.386880	0.045001	-0.461602	0.455937	0.287138	-0.154403	0.316603	-0.167971	-0.456923	-0.198614	0.505023	0.135883	0.119754	-0.463967	0.721002	-0.036445	-0.011783	-0.653768	-3.020547	0.370032	0.158499	-0.615060	-0.134520	-0.450116	0.699731	0.059813	-0.016234	0.792206	0.096041	-0.395237	1.621516	0.077836	-0.033628	0.572868	-0.568929	0.087900	-0.207656	0.885769	-0.077771	-0.053730	-0.493461	0.171201	0.356718	0.429747	0.708723	0.480392	-0.169949	-0.349768	-0.229597	0.948784	-0.245387	-0.192471	0.389416	-0.552398	-0.044974	-0.717961	0.304406	0.382856	0.677622	-0.307139	-0.452648	0.141111	0.437466	0.063991	0.607093	0.210415	0.009437	0.154642	0.039763	0.086299	-0.051058	-0.252120
P177	-0.519002	0.043399	0.518779	0.515128	-0.533395	-0.396298	0.945116	-0.135710	0.152057	0.201962	0.029667	-0.542207	-0.251300	0.645847	0.079098	0.604631	-0.167223	0.566567	-0.160278	-0.068322	0.350094	0.423635	0.841021	0.223285	0.085922	0.175094	-0.236432	-1.016134	-0.727769	-0.173864	-0.312593	0.804560	0.375575	-0.069019	0.479109	-0.359033	-0.646805	-0.108308	0.522672	0.013677	-0.342398	-0.747099	0.748370	-0.167296	-0.076076	-0.757414	-2.717593	0.134442	-0.075631	-0.944662	-0.178877	0.016086	0.249154	0.319598	0.111796	0.821254	0.177718	-0.905178	1.267798	-0.136749	-0.203917	0.867058	-0.930181	0.049313	-0.123404	0.809261	0.450830	-0.260657	-0.342476	0.080018	0.417548	0.473679	0.523147	0.581866	-0.149228	-0.247549	-0.079006	0.823419	-0.486155	-0.021600	0.099321	-0.478054	-0.035420	-0.628525	0.332010	0.418397	0.730027	0.004350	-0.665640	0.102135	0.383125	0.183820	0.717852	-0.160151	-0.110760	0.347927	0.337649	-0.170530	-0.181647	-0.211667
P69	-0.469917	0.394692	0.462918	0.459964	0.033623	-0.427509	0.565536	0.111739	0.044333	-0.322147	-0.290584	-0.441435	-0.056918	0.416426	0.352071	0.736916	-0.364665	0.520097	-0.183407	0.038637	0.348321	0.350674	0.833802	0.107153	-0.494049	-0.022581	0.001405	-0.897706	-0.317807	0.028432	-0.506392	0.267659	0.176261	-0.242821	-0.034540	-0.275533	-0.384451	-0.068913	0.532757	0.357299	0.104009	-0.591276	0.659260	0.003286	-0.000516	-0.812111	-3.346040	0.338105	0.102867	-0.562900	0.065151	-0.323508	0.798333	-0.072816	0.141351	0.535036	-0.094014	-0.142055	1.370342	0.169305	0.086498	0.557875	-0.741142	0.047981	-0.079927	0.551434	-0.164161	-0.130682	-0.761515	0.446854	0.049348	0.428412	0.607706	0.300685	-0.071058	-0.315863	-0.125432	0.933601	-0.220442	-0.315358	0.442412	-0.340347	0.002159	-0.436952	0.407925	0.250288	0.525028	-0.347681	-0.096193	0.139083	0.382988	0.049877	0.636135	0.231166	0.288991	0.133066	0.066039	0.109383	-0.281546	-0.415012
P1049	-0.524781	0.366720	0.359867	0.528768	-0.171393	-0.203392	0.788359	-0.022584	0.038935	-0.110567	-0.303148	-0.574106	-0.238793	0.427343	0.416693	0.827993	-0.401540	0.577487	-0.183995	0.079366	0.289286	0.282015	1.039869	0.161617	-0.436280	0.028338	-0.033810	-0.904611	-0.435146	0.019283	-0.529672	0.455885	0.220651	-0.258400	0.176288	-0.353663	-0.411711	-0.186105	0.549994	0.372413	0.009206	-0.606453	0.754858	0.037047	-0.010281	-0.702570	-3.376251	0.441134	0.024109	-0.701471	0.000074	-0.282733	0.672623	0.082269	0.138004	0.759623	-0.051259	-0.294026	1.422866	0.007269	0.098982	0.534996	-0.607651	0.045595	-0.107848	0.687303	-0.017410	-0.083002	-0.676239	0.376999	0.118111	0.454371	0.662583	0.356219	-0.084057	-0.274134	-0.214117	1.007347	-0.240833	-0.280268	0.372542	-0.371636	-0.015724	-0.496486	0.352018	0.110109	0.770076	-0.350452	-0.473345	0.236149	0.332264	-0.016215	0.729178	0.119113	0.160507	0.174755	0.113681	0.075175	-0.207950	-0.381432
P2522	-0.488738	0.360471	0.357625	0.429914	-0.059231	-0.289740	0.495798	0.155677	0.077856	-0.273949	-0.435957	-0.431964	-0.091219	0.452623	0.381913	0.859846	-0.361867	0.448230	-0.119896	0.099220	0.358188	0.313828	0.767154	0.093758	-0.582410	-0.010894	0.033388	-0.886285	-0.317221	0.126326	-0.521901	0.248940	0.153435	-0.273242	0.137277	-0.237460	-0.480641	-0.215096	0.510459	0.388505	0.098300	-0.572671	0.612346	0.000673	0.146643	-0.744627	-3.353475	0.277408	0.048676	-0.475817	0.089633	-0.360366	0.826326	0.005137	0.071254	0.651212	-0.058533	0.040953	1.372724	0.313653	0.055200	0.488838	-0.604270	0.109549	-0.030516	0.684550	-0.147766	-0.125563	-0.635590	0.366499	0.056031	0.359233	0.579249	0.147841	-0.054663	-0.333225	-0.238405	0.841666	-0.256909	-0.278561	0.432309	-0.350216	0.093675	-0.494522	0.424893	0.152839	0.481715	-0.357043	-0.185310	0.175425	0.278705	-0.024447	0.614814	0.134447	0.185184	0.193377	0.100424	0.196929	-0.228654	-0.265684
P150	-0.580895	0.340510	0.401876	0.502852	-0.098628	-0.336855	0.560225	0.024151	0.171336	-0.033895	-0.241162	-0.735340	-0.145327	0.550444	0.449836	0.698068	-0.503196	0.561186	-0.033480	0.018169	0.376809	0.229999	0.723954	-0.024330	-0.342347	0.124532	-0.088319	-1.023299	-0.362453	-0.007930	-0.523808	0.449123	0.213359	-0.215594	0.378086	-0.312070	-0.668301	-0.283051	0.483609	0.284881	0.176546	-0.577306	0.740651	0.079277	0.078016	-0.661629	-3.377462	0.460556	0.101014	-0.521869	-0.123883	-0.476957	0.891349	0.015505	0.007197	0.698462	-0.063112	-0.437290	1.548877	0.276388	-0.037415	0.500550	-0.744836	0.133648	0.048198	0.904559	0.049656	-0.013843	-0.579981	0.326953	0.203463	0.471642	0.624726	0.481038	-0.136923	-0.318359	-0.167173	1.098298	-0.353411	-0.051352	0.275411	-0.290314	-0.063256	-0.768413	0.432490	0.352393	0.570783	-0.473729	-0.511334	0.307430	0.406998	0.183690	0.527503	0.070710	0.148625	-0.003240	0.020522	0.129162	-0.247828	-0.282975
P2348	-0.739707	0.119853	0.344405	0.489099	-0.365320	-0.185887	0.799086	-0.106822	0.213208	0.025683	-0.158854	-0.583101	-0.383150	0.818722	0.559685	0.640622	-0.231193	0.580192	-0.024005	-0.068473	0.344424	0.233231	0.747695	0.171094	-0.015347	-0.022123	-0.106426	-0.983230	-0.594225	-0.127664	-0.420040	0.702894	0.006159	-0.198991	0.565012	-0.309111	-0.624625	-0.135305	0.592282	0.020453	-0.072529	-0.713507	0.725510	-0.047777	-0.065192	-0.727707	-3.418711	0.129215	-0.211995	-0.764343	-0.071214	-0.345853	0.572130	0.260903	0.153769	1.114622	0.155416	-0.743764	1.766013	0.108056	0.069051	0.707718	-0.767795	0.111409	-0.153807	0.906120	0.260882	-0.060455	-0.443786	0.158118	0.293440	0.383946	0.819168	0.470199	-0.106901	-0.357832	-0.244736	1.154482	-0.651294	-0.264564	0.180984	-0.503115	-0.152546	-0.762434	0.274943	0.376135	0.640011	-0.454697	-0.867988	0.152781	0.256269	0.218582	0.701269	0.354639	-0.107368	0.399844	0.253998	0.003302	-0.254789	-0.102510
P119	-0.531247	0.270322	0.029680	0.323386	-0.437000	0.172807	0.765414	-0.437301	-0.001351	0.132899	-0.074922	-0.635152	-0.544900	0.702260	0.539958	0.408401	-0.134278	0.894395	-0.043103	0.151447	0.134853	0.044510	0.825438	0.156274	-0.066307	-0.196325	-0.099075	-0.720551	-0.842898	-0.369319	-0.743965	1.063300	0.038270	-0.397630	0.256351	-0.285191	-0.292254	-0.067046	0.623646	-0.357296	-0.152916	-0.349242	0.713251	-0.106196	-0.590117	-0.059905	-4.234897	0.281541	-0.428326	-0.633203	-0.020983	-0.197370	0.201771	0.622777	0.223961	1.081003	-0.018856	-0.827446	1.532318	0.021229	0.160463	0.606047	-0.383329	0.132709	0.137735	1.050321	-0.007106	0.011985	-0.692776	0.268303	0.056304	0.477187	0.633237	0.277741	-0.113075	-0.194505	-0.486221	0.895870	-0.708351	-0.380720	0.230826	-0.282130	0.056933	-0.843794	0.090455	0.492742	0.696146	-0.595473	-0.848659	0.321895	0.486807	-0.049023	0.797497	0.210363	-0.179890	-0.053084	0.603311	0.284351	0.101147	-0.051478
P101	-0.644636	0.275380	0.355341	0.588270	-0.218322	-0.196623	0.846258	0.030351	0.049783	0.072082	-0.312640	-0.563864	-0.289159	0.446661	0.379658	0.755319	-0.410495	0.525824	-0.205422	-0.015625	0.373304	0.334334	0.904689	0.223414	-0.207161	0.113921	-0.128319	-1.061844	-0.573163	-0.009814	-0.538586	0.460159	0.238504	-0.242736	0.405247	-0.357166	-0.588387	-0.210278	0.560427	0.240113	-0.048053	-0.667553	0.706859	-0.067059	-0.003602	-0.720334	-3.324020	0.306648	0.079221	-0.739800	-0.100638	-0.323363	0.603557	0.127199	0.139740	0.860279	0.130880	-0.603415	1.573405	0.053011	0.037180	0.577443	-0.705807	0.066193	-0.095493	0.950784	0.118612	0.009342	-0.739499	0.282528	0.244948	0.525506	0.806982	0.451064	-0.095774	-0.322550	-0.218053	1.075269	-0.403203	-0.239367	0.310583	-0.344861	-0.051859	-0.646316	0.440569	0.188160	0.668758	-0.300218	-0.609214	0.198131	0.308832	-0.015817	0.682694	0.144054	0.123638	0.327735	0.069691	0.100154	-0.231920	-0.282549
P140	-0.584637	0.282954	0.365488	0.613745	-0.337061	-0.295303	1.031164	0.069548	0.103227	0.032245	-0.143779	-0.396290	-0.292001	0.483432	0.287303	0.782501	-0.273564	0.666206	-0.089874	-0.084947	0.206808	0.456264	1.077816	0.208412	-0.136888	0.246437	-0.051338	-1.137479	-0.865974	-0.051844	-0.497119	0.724343	0.270458	-0.203502	0.445373	-0.349967	-0.560003	-0.131535	0.532047	0.145985	-0.255275	-0.761439	0.889313	-0.128243	-0.064946	-0.695136	-3.190653	0.383298	-0.194596	-0.617791	-0.072223	-0.303666	0.516656	0.166176	0.263990	0.930446	0.022012	-0.733134	1.414493	-0.041848	-0.040187	0.791963	-0.750974	-0.014245	0.033907	0.874869	0.335609	-0.165973	-0.627097	0.068709	0.327030	0.481873	0.530225	0.530902	-0.086587	-0.297508	-0.236075	0.954112	-0.552972	-0.083480	0.217716	-0.301764	-0.124967	-0.516755	0.408970	0.325061	0.681769	-0.055395	-0.649852	0.215384	0.324644	0.035085	0.624451	-0.008530	0.060554	0.288046	0.345175	0.000107	-0.279073	-0.159725
P710	-0.678309	0.174703	-0.033232	0.255861	-0.403322	0.062980	0.782171	-0.290611	-0.120618	0.067574	-0.421788	-0.567616	-0.502282	0.558677	0.652448	0.356336	0.228463	0.635701	0.118454	0.043639	0.181512	-0.273245	0.517208	0.093441	0.063322	-0.205369	0.111657	-0.943361	-0.506621	-0.220668	-0.618253	0.857651	-0.273986	-0.490573	0.253424	-0.144181	-0.116575	-0.061679	0.584769	-0.092993	0.070928	-0.476478	0.295314	0.025792	-0.728306	0.119733	-4.466366	0.065958	-0.364215	-0.532960	-0.306813	-0.176348	0.145826	0.563192	0.046988	0.753632	0.091017	-0.588834	1.313702	-0.138403	0.071783	0.402599	-0.148160	0.375446	-0.078004	0.992638	0.174186	0.301336	-0.993951	0.142169	-0.202628	0.474492	0.448786	-0.094636	0.018450	-0.366971	-0.525687	1.081908	-0.744237	-0.169168	0.025084	0.114117	0.154224	-1.046198	0.150940	0.515806	0.674468	-0.602913	-0.718545	0.294226	0.304147	0.047529	0.726846	0.428726	0.293360	0.312089	0.462923	0.486906	0.349907	-0.044311
P364	-0.618382	0.120197	0.139569	0.361423	-0.367638	-0.165125	0.851681	-0.242484	0.090215	-0.019214	-0.399983	-0.463190	-0.512013	0.489743	0.489828	0.626061	-0.147912	0.634969	0.100682	-0.059267	0.258032	0.200131	0.927352	0.191553	-0.018583	-0.050591	-0.146321	-0.797669	-0.611298	-0.211831	-0.495087	0.772502	0.149386	-0.278290	0.439867	-0.232109	-0.568031	-0.194158	0.637788	0.178615	0.126083	-0.408795	0.720482	-0.010280	-0.246191	-0.342521	-4.021554	0.384679	-0.196980	-0.610311	-0.233946	-0.337449	0.570277	0.132072	0.092317	0.975573	0.053616	-0.713492	1.454871	-0.082205	0.164819	0.704066	-0.583715	0.307727	-0.000793	0.909667	0.184201	0.103118	-0.780759	0.355579	0.099371	0.618154	0.428378	0.374949	-0.084622	-0.421968	-0.496707	1.258390	-0.661143	-0.221484	0.280639	-0.247103	-0.089589	-0.903572	0.281402	0.293904	0.755830	-0.468714	-0.882676	0.221612	0.091404	0.111955	0.575230	0.256585	0.082327	0.216055	0.278323	0.285501	-0.196011	-0.011719
P1056	-0.542700	0.181380	0.426645	0.557554	-0.419089	-0.355575	1.000748	-0.150994	0.123048	0.252300	-0.042981	-0.535358	-0.226792	0.610617	0.173777	0.819127	-0.312670	0.551639	-0.140972	-0.082730	0.299773	0.445261	0.962436	0.253759	-0.038794	0.260598	-0.188346	-1.195037	-0.960393	-0.062523	-0.450012	0.749622	0.290886	-0.212936	0.540117	-0.276577	-0.684270	-0.089311	0.417674	-0.009029	-0.313867	-0.761371	0.790830	-0.174615	-0.110508	-0.554484	-2.909030	0.197456	-0.140910	-0.870822	-0.279893	-0.206764	0.390273	0.205252	0.168291	0.781145	0.147026	-0.853956	1.447308	-0.102178	-0.190007	0.772616	-0.864862	0.139032	-0.125010	0.867519	0.302406	-0.126244	-0.499270	-0.116893	0.360519	0.525351	0.607372	0.467473	-0.014845	-0.182099	-0.290748	0.916675	-0.540997	0.002398	0.130835	-0.355593	0.022920	-0.587857	0.294130	0.422738	0.688434	-0.007009	-0.747306	-0.085643	0.481984	0.161542	0.637173	-0.037853	-0.117274	0.362062	0.356682	-0.182552	-0.083320	-0.064921
P6364	-0.541415	0.308961	0.383739	0.502674	-0.013455	-0.290454	0.553999	0.016446	0.050549	-0.164783	-0.374315	-0.566418	-0.234996	0.437493	0.343916	0.868853	-0.435154	0.570299	-0.133722	0.121439	0.407398	0.264259	0.892277	0.091090	-0.447144	0.054048	-0.008335	-0.890911	-0.412294	0.171897	-0.585828	0.329158	0.227681	-0.223458	0.225909	-0.297518	-0.373435	-0.231281	0.471195	0.337331	0.118583	-0.596947	0.676640	-0.074633	0.068645	-0.733094	-3.318811	0.423391	0.115973	-0.525017	-0.008325	-0.400582	0.742828	0.051222	0.150810	0.694783	-0.125406	-0.225849	1.435089	0.199866	0.074387	0.492272	-0.558821	0.140115	-0.017124	0.656707	-0.064655	-0.170539	-0.700625	0.333217	0.188617	0.589310	0.696707	0.097063	-0.109473	-0.144644	-0.256594	0.922865	-0.168430	-0.167007	0.402812	-0.416049	0.021721	-0.498616	0.361417	0.214588	0.569161	-0.350786	-0.232460	0.237477	0.410550	0.030298	0.694800	0.094479	0.118762	0.117242	-0.083664	0.117479	-0.279031	-0.418187
P3842	-0.683396	0.076090	0.210576	0.470227	-0.465692	-0.078041	0.643398	-0.040770	0.234412	-0.125744	-0.114472	-0.580193	-0.220021	0.700035	0.497896	0.420307	-0.188455	0.583093	0.026027	-0.119172	0.166275	0.230162	0.554372	0.098037	-0.112144	0.002355	-0.012909	-0.713851	-0.451650	-0.055629	-0.330106	0.629819	0.125082	-0.237412	0.341025	-0.203497	-0.530213	-0.202064	0.622413	-0.076374	0.146063	-0.278100	0.646521	0.114632	-0.020717	-0.579323	-3.449726	0.216006	-0.276946	-0.633435	-0.274280	-0.331904	0.576621	0.177077	-0.145191	0.925886	-0.078448	-0.501054	1.593309	0.058809	-0.107781	0.469220	-0.487506	0.119027	-0.189769	0.978183	0.227839	0.020351	-0.497761	0.167820	0.202169	0.228315	0.520152	0.680563	-0.293375	-0.385387	-0.190299	1.095293	-0.460878	-0.150740	0.256734	-0.441588	-0.111235	-0.826134	0.314348	0.281545	0.669568	-0.499980	-0.747356	0.330366	0.328359	0.190385	0.505717	0.325684	-0.037965	-0.027897	0.161772	0.083448	-0.228559	0.036703
P793	-0.472672	0.296520	0.409863	0.347796	0.007491	-0.316752	0.471727	0.287069	0.235119	-0.273024	-0.411800	-0.511722	-0.039652	0.533868	0.406219	0.749552	-0.312391	0.414721	-0.085657	-0.025464	0.361308	0.125527	0.630779	-0.080817	-0.585301	0.044106	-0.008881	-0.863024	-0.251780	0.180732	-0.503221	0.179025	0.043838	-0.099070	0.291393	-0.105182	-0.518325	-0.224360	0.493241	0.303607	0.149725	-0.531312	0.664383	0.022183	0.169165	-0.811341	-3.121747	0.238532	0.024846	-0.316095	0.129700	-0.521888	0.873116	-0.006162	0.093141	0.776526	-0.035135	0.032599	1.494912	0.448995	0.059048	0.444554	-0.606133	0.115629	-0.028979	0.687487	-0.249050	-0.124244	-0.512598	0.193722	-0.029587	0.231712	0.573759	0.152912	-0.062951	-0.332287	-0.245072	0.883944	-0.384246	-0.241157	0.458856	-0.335836	0.104615	-0.559461	0.370379	0.255767	0.294511	-0.424717	-0.094063	0.104740	0.296848	0.140610	0.456110	0.216833	0.127699	0.079151	-0.017303	0.204422	-0.258158	-0.126652
P159	-0.684317	0.347988	0.273444	0.689294	-0.352953	-0.399463	0.927379	-0.164157	0.139380	0.051155	-0.273373	-0.654997	-0.443967	0.633105	0.462573	0.709630	-0.266578	0.621091	-0.015555	-0.017159	0.430773	0.186789	0.979500	0.198539	-0.110397	0.073281	-0.123960	-1.176777	-0.560018	-0.085541	-0.600170	0.692854	0.144793	-0.272619	0.556709	-0.289220	-0.611754	-0.253652	0.647824	0.210401	-0.035179	-0.785860	0.811589	-0.053905	-0.003617	-0.590533	-3.501653	0.273187	-0.036602	-0.796761	-0.082678	-0.442621	0.607203	0.172726	0.179410	0.830163	-0.083895	-0.782627	1.724338	0.070371	-0.020810	0.682842	-0.747627	0.129326	-0.036914	0.911845	0.292099	-0.000686	-0.665385	0.260737	0.144405	0.517085	0.737906	0.373014	-0.100596	-0.228026	-0.346002	1.164086	-0.538858	-0.185979	0.103404	-0.283326	-0.142841	-0.861113	0.561458	0.411735	0.590378	-0.504275	-0.679069	0.220479	0.266869	0.043134	0.695161	0.140092	0.026769	0.275763	0.267435	0.202018	-0.289088	-0.250477
P495	-0.595671	0.022737	0.550057	0.485217	-0.458715	-0.358840	0.951051	-0.030013	0.123976	0.197019	0.169631	-0.461181	-0.104302	0.585289	0.015105	0.607800	-0.240421	0.612009	-0.009103	-0.241175	0.338834	0.480876	0.815791	0.238337	0.069963	0.298025	-0.155556	-1.109674	-0.893582	-0.086421	-0.411928	0.754276	0.421219	0.082216	0.567645	-0.318833	-0.698046	-0.111512	0.339546	-0.026212	-0.313919	-0.776348	0.869694	-0.246416	0.052438	-0.727687	-2.805639	0.368553	-0.024496	-0.784239	-0.252326	-0.247629	0.323379	0.211404	0.226929	0.793961	0.127052	-0.990254	1.375947	-0.125608	-0.324249	0.872717	-1.122026	0.036025	0.073600	0.840293	0.473518	-0.130417	-0.257019	-0.057996	0.520506	0.375188	0.533948	0.568653	-0.132116	-0.248098	-0.357268	0.846422	-0.557712	0.172646	0.098868	-0.476193	0.055085	-0.560178	0.414226	0.554038	0.742600	0.213092	-0.758695	0.083311	0.366530	0.129323	0.536120	-0.179379	-0.035172	0.324699	0.412437	-0.114211	-0.284454	-0.095820
P190	-0.594170	0.251149	0.373550	0.524493	-0.437985	-0.375347	0.974754	-0.147376	-0.016391	0.247944	0.106639	-0.544108	-0.159961	0.556157	0.214059	0.602627	-0.247334	0.678551	-0.168603	-0.214405	0.276647	0.358356	0.890858	0.239380	-0.048293	0.175183	-0.165407	-1.146960	-0.884148	-0.126922	-0.424673	0.802360	0.366761	-0.187608	0.538115	-0.305189	-0.531323	-0.153111	0.568585	-0.035821	-0.206979	-0.736415	0.834867	-0.250362	-0.034758	-0.652667	-2.990169	0.411457	-0.075834	-0.851178	-0.287154	-0.342253	0.553011	0.366045	0.099089	0.898178	0.020097	-0.985568	1.572415	-0.136899	-0.328145	0.884774	-0.990177	0.216750	-0.095750	0.950137	0.380091	-0.149946	-0.435772	-0.023754	0.444898	0.506087	0.638741	0.566070	-0.174305	-0.270504	-0.270680	0.959239	-0.545226	-0.061359	0.134660	-0.302882	-0.039991	-0.694794	0.419118	0.436720	0.815034	-0.097530	-0.927232	0.126643	0.372517	0.102829	0.643537	-0.176831	-0.053871	0.378092	0.377267	-0.078700	-0.227815	-0.131743
P1532	-0.522687	0.499787	0.341699	0.447526	-0.161881	-0.314285	0.668796	0.010171	-0.009361	-0.170216	-0.396255	-0.598791	-0.152831	0.268778	0.357490	0.868800	-0.465323	0.575936	-0.218271	0.146088	0.381810	0.405207	0.923668	0.127298	-0.443989	0.008588	0.029431	-0.861234	-0.368778	0.003615	-0.559555	0.329129	0.173144	-0.361378	0.116193	-0.311444	-0.336175	-0.161381	0.550129	0.322921	0.054963	-0.665255	0.592204	0.031770	0.066451	-0.590941	-3.406523	0.548700	0.033109	-0.640543	0.089936	-0.377265	0.828975	0.069813	0.120899	0.677798	-0.141395	-0.172181	1.386285	0.204369	-0.002978	0.595702	-0.667438	0.005315	-0.066201	0.757233	-0.001839	-0.157431	-0.623877	0.418572	0.079251	0.551232	0.620758	0.241591	-0.041471	-0.254439	-0.168088	0.945974	-0.197517	-0.340426	0.331261	-0.298293	-0.057475	-0.553992	0.453453	0.139206	0.756120	-0.404525	-0.300973	0.279371	0.346986	-0.045926	0.651405	0.011495	0.220824	0.266113	0.084199	0.193075	-0.165891	-0.472400
P411	-0.538407	0.381675	0.383038	0.400117	-0.204133	-0.220118	0.731490	0.138352	-0.004529	-0.150334	-0.197491	-0.546190	-0.082303	0.454054	0.326642	0.670298	-0.334964	0.541384	-0.189155	-0.003275	0.317177	0.320043	0.824344	0.107297	-0.448863	0.028561	-0.029101	-0.872949	-0.422183	0.043237	-0.495543	0.357583	0.254155	-0.209601	0.140311	-0.338320	-0.481405	-0.258233	0.463584	0.283902	0.038272	-0.570075	0.676767	0.051234	0.034543	-0.693145	-3.166203	0.374589	0.067126	-0.625986	-0.015876	-0.405426	0.753061	0.065750	0.071990	0.791013	-0.045314	-0.265079	1.430445	0.067574	0.032966	0.588586	-0.622647	0.040981	-0.080176	0.721390	-0.001945	-0.047126	-0.629424	0.308075	0.186864	0.457778	0.624973	0.453806	-0.096811	-0.349970	-0.214845	0.959937	-0.188163	-0.237320	0.334752	-0.446992	-0.059778	-0.572250	0.316384	0.192528	0.712148	-0.253363	-0.430022	0.248651	0.296493	-0.000561	0.674014	0.157287	0.153236	0.211932	0.090116	0.176607	-0.229754	-0.317954
P737	-0.694039	0.245728	0.331759	0.478456	-0.398270	-0.340994	0.847186	-0.208171	0.019426	0.198699	-0.004216	-0.562127	-0.389885	0.674505	0.403572	0.652038	-0.185148	0.598984	-0.240854	-0.068200	0.287794	0.323507	0.825880	0.256219	-0.135332	0.142363	-0.209907	-1.037526	-0.738711	-0.121510	-0.467389	0.916620	0.155845	-0.273762	0.412243	-0.399163	-0.630144	-0.092634	0.570966	-0.087955	-0.119475	-0.512873	0.618135	-0.152408	-0.313306	-0.459716	-3.299974	0.412518	-0.038739	-0.952693	-0.320618	-0.242627	0.320227	0.380889	0.061850	0.882691	0.205853	-0.792447	1.639291	-0.167861	-0.084328	0.742920	-0.950694	0.149311	-0.026918	0.904765	0.166801	-0.075165	-0.559067	0.038327	0.319293	0.567335	0.601657	0.502017	-0.062087	-0.320682	-0.266504	0.952127	-0.630037	-0.221834	0.220121	-0.326687	0.085093	-0.848564	0.236604	0.476692	0.849195	-0.174061	-0.851800	-0.094727	0.460085	0.058594	0.638861	-0.067141	-0.039421	0.346528	0.632360	-0.094400	-0.081377	-0.223076
P179	-0.502333	0.170370	0.336982	0.374968	-0.120025	-0.434063	0.492626	0.143324	0.085711	-0.201454	-0.466752	-0.458877	-0.142171	0.654399	0.436279	0.646430	-0.306968	0.391964	-0.134593	-0.050424	0.306273	0.145449	0.785902	0.065844	-0.442921	0.002667	-0.073045	-0.801255	-0.298303	0.221924	-0.433658	0.265643	0.121446	-0.202539	0.363475	-0.258413	-0.494265	-0.268081	0.457670	0.276031	0.223568	-0.392196	0.748570	0.033449	0.085256	-0.741345	-3.388604	0.198465	-0.062887	-0.447391	0.010116	-0.431741	0.911599	0.059065	0.114304	0.753890	0.013624	-0.052659	1.484165	0.416956	0.176633	0.492890	-0.537360	0.210580	-0.042959	0.690094	-0.225210	-0.079665	-0.593820	0.276000	-0.019319	0.350903	0.666933	0.154387	-0.075720	-0.231301	-0.253570	0.905375	-0.320084	-0.212742	0.453235	-0.279876	0.119438	-0.532801	0.343988	0.297520	0.502963	-0.533235	-0.254712	0.217534	0.239923	0.067225	0.499732	0.282626	0.172311	0.059360	0.012417	0.186898	-0.232250	-0.082788
P7047	-0.501275	0.262988	0.398944	0.522212	-0.264491	-0.164783	0.707909	-0.078526	0.101417	-0.046380	-0.201113	-0.517748	-0.287047	0.465211	0.289647	0.858045	-0.392807	0.536218	-0.175045	-0.024507	0.451006	0.353344	0.903304	0.150937	-0.319164	0.151627	-0.060220	-0.894285	-0.481211	0.080465	-0.510564	0.435245	0.269908	-0.370115	0.226641	-0.377765	-0.479548	-0.163940	0.499904	0.182212	0.016227	-0.593197	0.662503	-0.019003	-0.163998	-0.653659	-3.165476	0.333169	0.063384	-0.822508	-0.165254	-0.163374	0.632882	0.167768	0.035706	0.684576	0.111678	-0.377724	1.481182	-0.059383	-0.062046	0.578191	-0.570324	0.169913	-0.236287	0.845964	-0.075369	-0.077135	-0.584239	0.257024	0.284966	0.470036	0.742173	0.382833	-0.096691	-0.325055	-0.181311	0.963146	-0.202300	-0.186382	0.367832	-0.392299	0.041749	-0.541069	0.234192	0.176410	0.774254	-0.217682	-0.529944	0.054003	0.500066	0.155231	0.712162	0.070820	0.115950	0.202793	0.179429	0.050181	-0.039206	-0.259757
P3461	-0.618921	0.142248	0.360156	0.392135	-0.243306	-0.181132	0.908154	-0.091103	-0.073339	0.180138	-0.218133	-0.719653	-0.404876	0.611079	0.380529	0.645167	-0.056099	0.693556	0.031053	0.009306	0.318788	0.104246	0.828018	0.143205	-0.193842	0.032769	-0.016687	-0.990854	-0.659808	-0.197242	-0.375113	0.869473	0.311226	-0.156833	0.566884	-0.161790	-0.448072	-0.277678	0.662053	-0.062148	0.187595	-0.558626	0.683320	0.098450	-0.123304	-0.476129	-3.360821	0.499158	-0.017005	-0.866024	-0.102754	-0.312470	0.571603	0.087484	0.076620	0.871008	0.117520	-0.854035	1.685355	-0.193971	0.009450	0.622807	-0.665165	0.039197	-0.188528	1.021990	0.263342	0.069368	-0.519080	0.080879	0.419883	0.510396	0.555654	0.611885	-0.168794	-0.339927	-0.349762	1.022763	-0.465146	-0.198704	0.312159	-0.359124	-0.046290	-0.789516	0.228978	0.381329	0.704194	-0.272591	-0.764631	0.204379	0.502763	0.056439	0.681449	0.131116	-0.009206	0.106118	0.224475	-0.103370	-0.173819	-0.174228
P1412	-0.650421	0.349629	0.323124	0.485889	-0.407349	-0.275804	0.936740	-0.137940	0.136505	0.170735	-0.097374	-0.574467	-0.263802	0.552320	0.453590	0.678105	-0.363253	0.582722	0.021825	-0.042179	0.326950	0.348383	1.065291	0.194175	-0.081837	0.104576	-0.109478	-1.201897	-0.678075	-0.192765	-0.564064	0.744307	0.332864	-0.151111	0.448954	-0.236002	-0.543404	-0.151751	0.610811	0.082658	-0.125178	-0.633225	0.879224	-0.069523	-0.016544	-0.550203	-3.247617	0.310602	0.064661	-0.855169	-0.138216	-0.426875	0.550013	0.162587	0.081042	0.811274	0.120418	-0.834534	1.556156	-0.095892	-0.095613	0.829404	-0.822398	0.138825	-0.087592	1.008914	0.268379	-0.045610	-0.476142	0.081345	0.331337	0.472949	0.686087	0.551682	-0.077821	-0.156035	-0.275266	1.078360	-0.424874	-0.158748	0.183205	-0.420519	-0.084804	-0.648905	0.325260	0.428114	0.779628	-0.275044	-0.660109	0.173601	0.357274	0.138234	0.684323	0.027091	-0.040151	0.199916	0.387337	0.025168	-0.190826	-0.112037
P1302	-0.525097	0.339443	0.490779	0.576780	-0.179789	-0.274089	0.801098	-0.006331	0.151672	-0.110044	-0.247140	-0.637125	-0.311392	0.509360	0.323372	0.869800	-0.365191	0.550359	-0.143142	0.066220	0.395580	0.386295	1.096065	0.185269	-0.390403	-0.011284	-0.061825	-1.034614	-0.520199	-0.066895	-0.515727	0.521423	0.143284	-0.203157	0.216738	-0.461236	-0.502720	-0.168450	0.510395	0.383791	0.005974	-0.710060	0.673682	-0.067445	0.008513	-0.741478	-3.464126	0.269676	0.038098	-0.697109	-0.042699	-0.291292	0.654140	0.189761	0.218038	0.764044	-0.019298	-0.520091	1.427849	0.146326	0.125310	0.565636	-0.657824	0.164754	-0.107754	0.812876	0.154990	-0.087533	-0.725520	0.479310	0.167326	0.497207	0.723085	0.316969	-0.086736	-0.279703	-0.203938	0.961517	-0.353722	-0.244723	0.249594	-0.353235	-0.047681	-0.602611	0.407863	0.175527	0.703244	-0.219419	-0.572435	0.126515	0.380711	0.026705	0.675359	0.087921	0.168589	0.198611	0.110526	0.149868	-0.243858	-0.398791
P780	-0.494612	0.364398	0.445803	0.575445	-0.065579	-0.192141	0.809759	0.039985	0.109948	-0.106825	-0.179010	-0.467369	-0.254978	0.419514	0.348229	0.787495	-0.354564	0.573539	-0.178027	0.008589	0.356478	0.446593	1.044330	0.167283	-0.375518	0.030358	-0.070895	-0.997732	-0.583421	-0.043207	-0.522781	0.475847	0.218979	-0.236499	0.267529	-0.330335	-0.570761	-0.118009	0.467668	0.308162	-0.097158	-0.726125	0.604735	-0.122840	-0.042415	-0.758731	-3.337042	0.299381	0.009453	-0.586707	-0.023731	-0.217226	0.615146	0.136224	0.180892	0.754468	-0.020700	-0.491395	1.357366	0.082035	0.081499	0.547500	-0.707126	0.079910	-0.098263	0.751795	0.160353	-0.062529	-0.690602	0.288334	0.220338	0.577005	0.679368	0.364806	-0.064149	-0.332813	-0.148289	0.917935	-0.310321	-0.217175	0.274511	-0.333575	-0.092919	-0.516724	0.387578	0.092792	0.678468	-0.170568	-0.510238	0.097812	0.383527	0.057877	0.693243	0.014061	0.146051	0.319679	0.155385	0.049106	-0.282641	-0.296415
P915	-0.527192	0.217094	0.412036	0.507829	-0.222233	-0.384776	0.758019	-0.191765	0.116528	-0.004193	-0.251715	-0.638789	-0.412918	0.501120	0.446739	0.741481	-0.194322	0.513435	-0.005231	-0.018722	0.393835	0.170854	0.877715	0.329278	-0.068152	0.022620	-0.077548	-1.023424	-0.519539	-0.120623	-0.492142	0.594176	0.166882	-0.264258	0.708702	-0.194423	-0.508564	-0.121974	0.752563	-0.047424	0.191765	-0.511598	0.756681	-0.039171	0.081637	-0.553878	-3.208484	0.344001	0.052969	-0.898391	-0.072328	-0.451371	0.722924	0.131718	0.002896	0.797223	0.098055	-0.871770	1.767213	0.182649	-0.032571	0.654269	-0.813791	0.218860	-0.015996	0.888672	0.137510	-0.007391	-0.530978	0.111435	0.353722	0.417610	0.742830	0.368460	-0.060657	-0.234977	-0.356205	1.309967	-0.516104	-0.266293	0.135935	-0.398578	-0.063499	-0.918427	0.355400	0.344346	0.784616	-0.439154	-0.709555	0.241050	0.326409	0.116825	0.562027	0.239794	0.063247	0.074070	0.103903	0.034347	-0.149651	-0.142939
P504	-0.727699	-0.178276	0.082730	0.486922	-0.352542	0.057901	0.482068	-0.273455	-0.185799	-0.122748	-0.280794	-0.672139	-0.278281	0.598137	0.438232	0.018569	0.011582	0.969586	-0.156626	0.104137	-0.109515	-0.003556	0.879916	0.184765	0.195606	-0.219751	-0.064648	-0.456291	-0.546266	-0.110179	-0.144927	0.539157	0.229371	-0.374601	0.313076	-0.342669	-0.347547	-0.180183	0.726809	-0.051584	0.106532	-0.270285	0.776238	0.231906	-0.301272	-0.300181	-3.987217	0.522314	-0.107886	-0.554756	-0.152530	-0.196222	0.777018	0.459797	0.245387	1.089312	-0.179512	-0.586589	1.488642	-0.434300	0.382764	0.560112	-0.439298	0.229024	0.268379	0.850568	0.206374	-0.095394	-0.858939	0.399282	0.386656	0.574594	0.316647	0.294285	-0.122501	-0.302150	-0.722444	1.205773	-0.505465	-0.083300	0.530879	-0.378920	-0.001639	-0.936109	0.198919	0.565773	0.659796	-0.341627	-0.791376	0.780223	0.197146	0.075759	0.532841	0.459419	0.135645	0.212541	0.193421	0.370889	-0.165349	-0.079865
P417	-0.443631	0.411075	0.369253	0.445942	-0.038306	-0.431767	0.568760	0.018994	0.030832	-0.280640	-0.435380	-0.475819	-0.076459	0.390608	0.332723	0.883331	-0.411329	0.480215	-0.188451	0.115727	0.358496	0.370808	0.854766	0.020534	-0.594672	-0.126584	0.038848	-0.967539	-0.312973	0.144231	-0.539892	0.289960	0.069893	-0.267055	0.018473	-0.276981	-0.434702	-0.170844	0.501079	0.466624	0.025165	-0.620148	0.665168	0.030169	0.071542	-0.718727	-3.481865	0.389340	0.065391	-0.560616	0.153434	-0.329549	0.844884	-0.058542	0.143271	0.576970	-0.208778	-0.008954	1.250188	0.319151	0.001846	0.559521	-0.691282	0.052335	-0.011097	0.598485	-0.163322	-0.153770	-0.694631	0.414735	-0.056771	0.362706	0.618583	0.191832	-0.010049	-0.237768	-0.216570	0.863207	-0.212832	-0.357512	0.473422	-0.316692	-0.001026	-0.472640	0.481839	0.201687	0.623600	-0.388428	-0.161173	0.287713	0.367371	0.012106	0.705232	0.068903	0.231788	0.189488	0.152835	0.193167	-0.246643	-0.371602
P1290	-0.467905	0.364149	0.442239	0.559547	-0.140667	-0.286110	0.681181	0.040962	0.094490	-0.171837	-0.238999	-0.533401	-0.147060	0.350379	0.372883	0.797534	-0.393562	0.591662	-0.285946	0.013361	0.392008	0.429000	0.901048	0.148997	-0.456403	0.088898	0.002790	-0.954141	-0.460281	0.120747	-0.501270	0.401789	0.213879	-0.165818	0.152997	-0.386494	-0.478523	-0.209715	0.472455	0.314374	-0.042793	-0.671491	0.670341	-0.014910	-0.062250	-0.723895	-3.241810	0.453449	0.140958	-0.651497	-0.061085	-0.372445	0.743538	0.073636	0.124671	0.724377	-0.060147	-0.257979	1.370564	0.076411	-0.055764	0.572352	-0.748927	-0.024504	-0.119143	0.798905	-0.062345	-0.155365	-0.554878	0.334429	0.141077	0.411198	0.613863	0.389085	-0.029721	-0.298937	-0.156411	0.921251	-0.131419	-0.235898	0.346679	-0.331508	0.018516	-0.509726	0.379787	0.210301	0.727827	-0.215496	-0.358619	0.172163	0.360426	0.032569	0.684774	0.004200	0.193134	0.201803	0.131575	0.112517	-0.224367	-0.350218
P1383	-0.463593	0.480479	0.479328	0.471827	-0.049295	-0.412934	0.558779	-0.034091	0.054852	-0.237156	-0.362597	-0.570063	-0.079122	0.426996	0.372794	0.880694	-0.372094	0.488456	-0.215470	0.080008	0.416682	0.308379	0.804409	0.115257	-0.527013	-0.118314	0.005779	-0.915002	-0.326449	0.114599	-0.476603	0.282511	0.179665	-0.183742	0.065988	-0.325598	-0.469580	-0.203489	0.417062	0.332786	0.117896	-0.536325	0.642054	0.008249	0.013402	-0.637065	-3.245951	0.306339	0.004043	-0.560892	0.107648	-0.401023	0.741371	0.046018	0.085018	0.540768	-0.205920	-0.064737	1.330247	0.238200	0.047635	0.359071	-0.686025	0.081567	-0.052260	0.616621	-0.117117	-0.176869	-0.572805	0.480965	0.061245	0.333006	0.707038	0.220375	-0.143382	-0.190285	-0.217925	0.873011	-0.141427	-0.280812	0.355451	-0.422714	-0.008028	-0.598870	0.441165	0.260665	0.578621	-0.390578	-0.222993	0.232856	0.463398	0.136102	0.596613	0.049584	0.173492	0.095898	0.107929	0.134695	-0.249349	-0.441699
P451	-0.500856	0.345431	0.425575	0.552632	-0.265130	-0.244946	0.886540	-0.186343	0.096848	0.052980	-0.230790	-0.659224	-0.389017	0.494163	0.431703	0.686429	-0.312345	0.563815	-0.034824	-0.012301	0.415903	0.149155	0.851508	0.078101	-0.102757	0.048396	-0.075358	-1.042123	-0.533660	-0.142188	-0.406321	0.675559	0.132020	-0.363274	0.533285	-0.220170	-0.377850	-0.110607	0.712104	0.054714	0.053068	-0.573221	0.695492	-0.010773	-0.031293	-0.547836	-3.296509	0.341436	-0.053161	-0.805061	-0.112109	-0.380657	0.601121	0.285803	0.047577	0.847039	0.182972	-0.849915	1.623109	0.038805	-0.029436	0.651803	-0.729805	0.185979	-0.076776	0.900974	0.193326	0.070119	-0.589754	0.137460	0.224840	0.528736	0.768353	0.451488	-0.066156	-0.385744	-0.383439	1.105821	-0.377362	-0.285594	0.109685	-0.377625	-0.186721	-0.825708	0.310778	0.386454	0.871636	-0.379392	-0.796832	0.246637	0.298817	0.028675	0.749135	0.132202	-0.053149	0.271895	0.110658	0.092733	-0.089895	-0.200487
P86	-0.664053	0.246036	0.364151	0.444983	-0.234660	-0.214632	0.782953	-0.208229	0.104488	-0.031806	-0.216542	-0.531284	-0.247495	0.482466	0.512568	0.621047	-0.277124	0.402394	-0.123020	-0.198402	0.330225	0.316981	0.792563	0.220119	-0.147423	0.096199	-0.169677	-1.011116	-0.482211	-0.104143	-0.494125	0.606465	0.234823	-0.270279	0.398356	-0.237633	-0.369534	-0.074092	0.623872	-0.028473	0.112205	-0.739102	0.748111	0.011630	0.072810	-0.704916	-3.259336	0.457255	0.098129	-0.701348	-0.071842	-0.306460	0.665578	0.145240	-0.071773	0.831568	0.241531	-0.729491	1.609489	-0.039112	0.023237	0.738043	-0.681933	0.206728	-0.078944	0.929902	0.164784	-0.018690	-0.505666	0.237071	0.300486	0.439608	0.657390	0.320995	-0.032440	-0.316032	-0.307402	1.085201	-0.400013	-0.147784	0.122157	-0.453426	-0.067297	-0.825218	0.342215	0.281574	0.814220	-0.376129	-0.668857	0.128141	0.358129	0.056514	0.666670	0.207669	0.059921	0.224105	0.183892	-0.034106	-0.111916	-0.209046
